{
  "learner": {
    "attributes": {
      "best_iteration": "8",
      "best_score": "0.14559553608548748"
    },
    "feature_names": [
      "lag_1",
      "performance_rating",
      "goals_assists",
      "minutes_played",
      "days_injured",
      "social_sentiment_score",
      "contract_duration_months",
      "perf_trend_3m",
      "goals_trend_3m",
      "cumulative_days_injured",
      "performance_change",
      "sentiment_change",
      "form",
      "injury_ratio",
      "position_Forward",
      "position_Goalkeeper",
      "position_Midfielder"
    ],
    "feature_types": [
      "float",
      "float",
      "float",
      "float",
      "float",
      "float",
      "float",
      "float",
      "float",
      "float",
      "float",
      "float",
      "float",
      "float",
      "i",
      "i",
      "i"
    ],
    "gradient_booster": {
      "model": {
        "cats": { "enc": [], "feature_segments": [], "sorted_idx": [] },
        "gbtree_model_param": { "num_parallel_tree": "1", "num_trees": "29" },
        "iteration_indptr": [
          0, 1, 2, 3, 4, 5, 6, 7, 8, 9, 10, 11, 12, 13, 14, 15, 16, 17, 18, 19,
          20, 21, 22, 23, 24, 25, 26, 27, 28, 29
        ],
        "tree_info": [
          0, 0, 0, 0, 0, 0, 0, 0, 0, 0, 0, 0, 0, 0, 0, 0, 0, 0, 0, 0, 0, 0, 0,
          0, 0, 0, 0, 0, 0
        ],
        "trees": [
          {
            "base_weights": [
              -3.118679e-4, 6.9828075e-1, -3.3265627e-3, 5.82975, 2.1026054e-1,
              -1.3257377e-2, 9.5981404e-2, 3.49205e-1, 7.552625e-2, 7.742246e-1,
              -0, 2.0753592e-2, -3.5093464e-2, 5.8739394e-2, 1.3322313e-1,
              -9.914704e-3, 6.884331e-2, 1.9123202e-2, -7.5759864e-3,
              2.2727072e-3, 4.0196194e-4, 1.8482059e-3, -1.9800167e-3,
              4.0825936e-3, 4.7873807e-4, 8.748895e-3, 4.8026154e-3
            ],
            "categories": [],
            "categories_nodes": [],
            "categories_segments": [],
            "categories_sizes": [],
            "default_left": [
              0, 0, 0, 0, 0, 0, 0, 0, 0, 0, 0, 0, 0, 0, 0, 0, 0, 0, 0, 0, 0, 0,
              0, 0, 0, 0, 0
            ],
            "id": 0,
            "left_children": [
              1, 3, 5, 7, 9, 11, 13, -1, -1, 15, 17, 19, 21, 23, 25, -1, -1, -1,
              -1, -1, -1, -1, -1, -1, -1, -1, -1
            ],
            "loss_changes": [
              1.7646778e1, 8.590761e1, 8.350575, 1.6072845e-1, 3.8916903,
              5.756137, 9.627638e-1, 0, 0, 6.137033, 1.6064361, 9.2069554e-1,
              1.5365949, 3.9631295e-1, 4.328041e-1, 0, 0, 0, 0, 0, 0, 0, 0, 0,
              0, 0, 0
            ],
            "parents": [
              2147483647, 0, 0, 1, 1, 2, 2, 3, 3, 4, 4, 5, 5, 6, 6, 9, 9, 10,
              10, 11, 11, 12, 12, 13, 13, 14, 14
            ],
            "right_children": [
              2, 4, 6, 8, 10, 12, 14, -1, -1, 16, 18, 20, 22, 24, 26, -1, -1,
              -1, -1, -1, -1, -1, -1, -1, -1, -1, -1
            ],
            "split_conditions": [
              3.5478016e-3, 2.0833334e-2, 1.7603911e-1, 4.555358e-1, -7.525e-2,
              -5.59e-2, 6.333333e-1, 3.49205e-1, 7.552625e-2, 4.611111e-1,
              6.388889e-2, -2.498e-1, 1.8875055e-1, 1.1495e-1, -3.58e-2,
              -9.914704e-3, 6.884331e-2, 1.9123202e-2, -7.5759864e-3,
              2.2727072e-3, 4.0196194e-4, 1.8482059e-3, -1.9800167e-3,
              4.0825936e-3, 4.7873807e-4, 8.748895e-3, 4.8026154e-3
            ],
            "split_indices": [
              0, 6, 13, 1, 11, 11, 4, 0, 0, 3, 3, 11, 1, 11, 11, 0, 0, 0, 0, 0,
              0, 0, 0, 0, 0, 0, 0
            ],
            "split_type": [
              0, 0, 0, 0, 0, 0, 0, 0, 0, 0, 0, 0, 0, 0, 0, 0, 0, 0, 0, 0, 0, 0,
              0, 0, 0, 0, 0
            ],
            "sum_hessian": [
              8.542e3, 3.5e1, 8.507e3, 2, 3.3e1, 7.739e3, 7.68e2, 1, 1, 8,
              2.5e1, 3.017e3, 4.722e3, 3.92e2, 3.76e2, 3, 5, 7, 1.8e1, 1.011e3,
              2.006e3, 2.71e2, 4.451e3, 2.6e2, 1.32e2, 1.69e2, 2.07e2
            ],
            "tree_param": {
              "num_deleted": "0",
              "num_feature": "17",
              "num_nodes": "27",
              "size_leaf_vector": "1"
            }
          },
          {
            "base_weights": [
              1.6084338e-4, 7.234724e-1, -2.6406397e-3, 3.1478903e-1, 4.6749377,
              3.2050166e-2, -2.7676648e-2, 7.4747735e-1, -8.155225e-2, -0,
              3.4047487e-1, 2.168341e-2, 1.3111061e-1, -3.5473056e-2,
              6.261524e-2, 1.3305152e-2, 7.11042e-2, -0, -8.457145e-3,
              2.6478262e-3, 1.3880247e-5, 4.6809283e-3, 8.340595e-3,
              5.1997876e-4, -2.425507e-3, 4.175085e-3, 5.118007e-4
            ],
            "categories": [],
            "categories_nodes": [],
            "categories_segments": [],
            "categories_sizes": [],
            "default_left": [
              0, 0, 0, 0, 0, 0, 0, 0, 0, 0, 0, 0, 0, 0, 0, 0, 0, 0, 0, 0, 0, 0,
              0, 0, 0, 0, 0
            ],
            "id": 1,
            "left_children": [
              1, 3, 5, 7, 9, 11, 13, 15, 17, -1, -1, 19, 21, 23, 25, -1, -1, -1,
              -1, -1, -1, -1, -1, -1, -1, -1, -1
            ],
            "loss_changes": [
              1.7855762e1, 5.0940056e1, 7.467966, 5.8816724, 2.7173386e1,
              3.6146467, 3.5112274, 3.973299, 1.7303008e-1, 0, 0, 2.1570358,
              3.0390835e-1, 2.7777457, 3.8222504e-1, 0, 0, 0, 0, 0, 0, 0, 0, 0,
              0, 0, 0
            ],
            "parents": [
              2147483647, 0, 0, 1, 1, 2, 2, 3, 3, 4, 4, 5, 5, 6, 6, 7, 7, 8, 8,
              11, 11, 12, 12, 13, 13, 14, 14
            ],
            "right_children": [
              2, 4, 6, 8, 10, 12, 14, 16, 18, -1, -1, 20, 22, 24, 26, -1, -1,
              -1, -1, -1, -1, -1, -1, -1, -1, -1, -1
            ],
            "split_conditions": [
              3.5478016e-3, 8.3916086e-1, -1.6451756e-2, 2.801245e-2,
              3.370387e-1, 2e-1, 3.6666667e-1, 4.5286795e-1, 4.3561766e-1, -0,
              3.4047487e-1, 4.3705e-1, 6.333333e-1, 3.6805e-1, 1.6835e-1,
              1.3305152e-2, 7.11042e-2, -0, -8.457145e-3, 2.6478262e-3,
              1.3880247e-5, 4.6809283e-3, 8.340595e-3, 5.1997876e-4,
              -2.425507e-3, 4.175085e-3, 5.118007e-4
            ],
            "split_indices": [
              0, 12, 10, 10, 1, 4, 4, 1, 7, 0, 0, 5, 4, 5, 11, 0, 0, 0, 0, 0, 0,
              0, 0, 0, 0, 0, 0
            ],
            "split_type": [
              0, 0, 0, 0, 0, 0, 0, 0, 0, 0, 0, 0, 0, 0, 0, 0, 0, 0, 0, 0, 0, 0,
              0, 0, 0, 0, 0
            ],
            "sum_hessian": [
              8.632e3, 3.3e1, 8.599e3, 3.1e1, 2, 3.596e3, 5.003e3, 1.5e1, 1.6e1,
              1, 1, 3.261e3, 3.35e2, 4.611e3, 3.92e2, 1e1, 5, 7, 9, 1.315e3,
              1.946e3, 1.72e2, 1.63e2, 1.012e3, 3.599e3, 2.73e2, 1.19e2
            ],
            "tree_param": {
              "num_deleted": "0",
              "num_feature": "17",
              "num_nodes": "27",
              "size_leaf_vector": "1"
            }
          },
          {
            "base_weights": [
              7.55058e-4, 8.1178147e-1, -2.3007449e-3, 5.025597, 3.616773e-1,
              2.6381832e-2, -3.0346785e-2, 3.2456808e-2, 3.31963e-1, 1.3003199,
              -5.869103e-2, 1.6352918e-2, 1.22187346e-1, -3.7494697e-2,
              5.4321602e-2, 8.8347785e-2, -1.0540793e-2, -1.3584577e-2,
              1.4276065e-2, 2.6765126e-3, -1.3747584e-4, 4.3812552e-3,
              7.911789e-3, 1.6399869e-4, -2.4046928e-3, 3.7852253e-3,
              3.881978e-5
            ],
            "categories": [],
            "categories_nodes": [],
            "categories_segments": [],
            "categories_sizes": [],
            "default_left": [
              0, 0, 0, 0, 0, 0, 0, 0, 0, 0, 0, 0, 0, 0, 0, 0, 0, 0, 0, 0, 0, 0,
              0, 0, 0, 0, 0
            ],
            "id": 2,
            "left_children": [
              1, 3, 5, 7, 9, 11, 13, -1, -1, 15, 17, 19, 21, 23, 25, -1, -1, -1,
              -1, -1, -1, -1, -1, -1, -1, -1, -1
            ],
            "loss_changes": [
              2.178722e1, 5.807836e1, 6.9168825, 1.3232414e1, 1.2928976e1,
              4.0035915, 2.6292787, 0, 0, 8.202074, 1.6836417, 2.7561703,
              3.5783243e-1, 1.7607813, 3.4411478e-1, 0, 0, 0, 0, 0, 0, 0, 0, 0,
              0, 0, 0
            ],
            "parents": [
              2147483647, 0, 0, 1, 1, 2, 2, 3, 3, 4, 4, 5, 5, 6, 6, 9, 9, 10,
              10, 11, 11, 12, 12, 13, 13, 14, 14
            ],
            "right_children": [
              2, 4, 6, 8, 10, 12, 14, -1, -1, 16, 18, 20, 22, 24, 26, -1, -1,
              -1, -1, -1, -1, -1, -1, -1, -1, -1, -1
            ],
            "split_conditions": [
              3.5478016e-3, -9.337483e-2, 6.669631e-4, 3.7683415e-1, -9.17e-2,
              2e-1, 3.6666667e-1, 3.2456808e-2, 3.31963e-1, 6e-1, 4.9484536e-1,
              3.9385e-1, 6.333333e-1, 3.625e-1, 1.6835e-1, 8.8347785e-2,
              -1.0540793e-2, -1.3584577e-2, 1.4276065e-2, 2.6765126e-3,
              -1.3747584e-4, 4.3812552e-3, 7.911789e-3, 1.6399869e-4,
              -2.4046928e-3, 3.7852253e-3, 3.881978e-5
            ],
            "split_indices": [
              0, 10, 10, 1, 11, 4, 4, 0, 0, 8, 12, 5, 4, 5, 11, 0, 0, 0, 0, 0,
              0, 0, 0, 0, 0, 0, 0
            ],
            "split_type": [
              0, 0, 0, 0, 0, 0, 0, 0, 0, 0, 0, 0, 0, 0, 0, 0, 0, 0, 0, 0, 0, 0,
              0, 0, 0, 0, 0
            ],
            "sum_hessian": [
              8.626e3, 3.2e1, 8.594e3, 2, 3e1, 4.24e3, 4.354e3, 1, 1, 9, 2.1e1,
              3.844e3, 3.96e2, 4.021e3, 3.33e2, 7, 2, 1.4e1, 7, 1.313e3,
              2.531e3, 2.11e2, 1.85e2, 8.2e2, 3.201e3, 2.31e2, 1.02e2
            ],
            "tree_param": {
              "num_deleted": "0",
              "num_feature": "17",
              "num_nodes": "27",
              "size_leaf_vector": "1"
            }
          },
          {
            "base_weights": [
              1.909774e-4, 7.3336035e-1, -2.8869857e-3, 3.8021603e-1,
              3.2366392e-1, 3.1073749e-2, -2.5234915e-2, 1.3218826, -0,
              2.146118e-2, 1.24980636e-1, -3.32415e-2, 5.226193e-2, 8.95637e-2,
              -1.0189433e-2, 1.5120267e-2, -7.097506e-3, 2.2911967e-3,
              1.4549225e-4, 3.9335038e-3, 7.9096565e-3, -9.270315e-4,
              -3.0374702e-3, 3.8010129e-3, 8.5587887e-4
            ],
            "categories": [],
            "categories_nodes": [],
            "categories_segments": [],
            "categories_sizes": [],
            "default_left": [
              0, 0, 0, 0, 0, 0, 0, 0, 0, 0, 0, 0, 0, 0, 0, 0, 0, 0, 0, 0, 0, 0,
              0, 0, 0
            ],
            "id": 3,
            "left_children": [
              1, 3, 5, 7, -1, 9, 11, 13, 15, 17, 19, 21, 23, -1, -1, -1, -1, -1,
              -1, -1, -1, -1, -1, -1, -1
            ],
            "loss_changes": [
              1.9971031e1, 6.911174e1, 6.5635595, 1.2269424e1, 0, 3.0157979,
              3.2355022, 8.320152, 1.2771868, 1.3824564, 3.5054588e-1,
              1.8776555, 3.5625553e-1, 0, 0, 0, 0, 0, 0, 0, 0, 0, 0, 0, 0
            ],
            "parents": [
              2147483647, 0, 0, 1, 1, 2, 2, 3, 3, 5, 5, 6, 6, 7, 7, 8, 8, 9, 9,
              10, 10, 11, 11, 12, 12
            ],
            "right_children": [
              2, 4, 6, 8, -1, 10, 12, 14, 16, 18, 20, 22, 24, -1, -1, -1, -1,
              -1, -1, -1, -1, -1, -1, -1, -1
            ],
            "split_conditions": [
              3.5478016e-3, 3.0078125e-1, -2.2009782e-2, -7.525e-2,
              3.2366392e-1, 2e-1, 1.7603911e-1, 6e-1, 4.461983e-1, -1.123e-1,
              5.6666666e-1, 1.3825e-1, 7.114273e-2, 8.95637e-2, -1.0189433e-2,
              1.5120267e-2, -7.097506e-3, 2.2911967e-3, 1.4549225e-4,
              3.9335038e-3, 7.9096565e-3, -9.270315e-4, -3.0374702e-3,
              3.8010129e-3, 8.5587887e-4
            ],
            "split_indices": [
              0, 9, 10, 11, 0, 4, 13, 8, 1, 11, 4, 11, 10, 0, 0, 0, 0, 0, 0, 0,
              0, 0, 0, 0, 0
            ],
            "split_type": [
              0, 0, 0, 0, 0, 0, 0, 0, 0, 0, 0, 0, 0, 0, 0, 0, 0, 0, 0, 0, 0, 0,
              0, 0, 0
            ],
            "sum_hessian": [
              8.686e3, 3.6e1, 8.65e3, 3.5e1, 1, 3.424e3, 5.226e3, 9, 2.6e1,
              3.112e3, 3.12e2, 4.743e3, 4.83e2, 7, 2, 9, 1.7e1, 1.333e3,
              1.779e3, 1.38e2, 1.74e2, 3.104e3, 1.639e3, 2.79e2, 2.04e2
            ],
            "tree_param": {
              "num_deleted": "0",
              "num_feature": "17",
              "num_nodes": "25",
              "size_leaf_vector": "1"
            }
          },
          {
            "base_weights": [
              7.145573e-4, 8.2392937e-1, -2.208725e-3, 2.6365668e-1,
              3.1801414e-1, -1.0852172e-2, 7.811891e-2, 1.510118, -0,
              2.703893e-2, -2.6828377e-2, 1.024369e-1, 2.130319e-2, -0,
              9.223085e-2, 2.3156537e-2, -1.4898685e-2, 2.1499505e-3,
              -8.661111e-4, 4.116229e-4, -2.0296331e-3, 7.19284e-3, 3.494354e-3,
              3.6364747e-4, 4.1080844e-3
            ],
            "categories": [],
            "categories_nodes": [],
            "categories_segments": [],
            "categories_sizes": [],
            "default_left": [
              0, 0, 0, 0, 0, 0, 0, 0, 0, 0, 0, 0, 0, 0, 0, 0, 0, 0, 0, 0, 0, 0,
              0, 0, 0
            ],
            "id": 4,
            "left_children": [
              1, 3, 5, -1, 7, 9, 11, 13, 15, 17, 19, 21, 23, -1, -1, -1, -1, -1,
              -1, -1, -1, -1, -1, -1, -1
            ],
            "loss_changes": [
              2.108202e1, 6.5306015e1, 5.909794, 0, 1.0749883e1, 4.6824436,
              1.0771861, 3.3303185, 3.4767253, 1.6313803, 2.646616, 6.542506e-1,
              1.7241925e-1, 0, 0, 0, 0, 0, 0, 0, 0, 0, 0, 0, 0
            ],
            "parents": [
              2147483647, 0, 0, 1, 1, 2, 2, 4, 4, 5, 5, 6, 6, 7, 7, 8, 8, 9, 9,
              10, 10, 11, 11, 12, 12
            ],
            "right_children": [
              2, 4, 6, -1, 8, 10, 12, 14, 16, 18, 20, 22, 24, -1, -1, -1, -1,
              -1, -1, -1, -1, -1, -1, -1, -1
            ],
            "split_conditions": [
              3.5478016e-3, 2.0833334e-2, 2e-1, 2.6365668e-1, -1.2475e-1,
              3.957e-1, 5.135616e-2, 1.6495e-1, 4.6932217e-1, 4.4241887e-2,
              -4.4686526e-2, 4.576e-1, 8.666667e-1, -0, 9.223085e-2,
              2.3156537e-2, -1.4898685e-2, 2.1499505e-3, -8.661111e-4,
              4.116229e-4, -2.0296331e-3, 7.19284e-3, 3.494354e-3, 3.6364747e-4,
              4.1080844e-3
            ],
            "split_indices": [
              0, 6, 4, 0, 11, 5, 10, 5, 7, 10, 10, 5, 4, 0, 0, 0, 0, 0, 0, 0, 0,
              0, 0, 0, 0
            ],
            "split_type": [
              0, 0, 0, 0, 0, 0, 0, 0, 0, 0, 0, 0, 0, 0, 0, 0, 0, 0, 0, 0, 0, 0,
              0, 0, 0
            ],
            "sum_hessian": [
              8.588e3, 3e1, 8.558e3, 2, 2.8e1, 7.733e3, 8.25e2, 5, 2.3e1,
              2.284e3, 5.449e3, 5.71e2, 2.54e2, 1, 4, 9, 1.4e1, 1.688e3, 5.96e2,
              1.526e3, 3.923e3, 2.43e2, 3.28e2, 2.14e2, 4e1
            ],
            "tree_param": {
              "num_deleted": "0",
              "num_feature": "17",
              "num_nodes": "25",
              "size_leaf_vector": "1"
            }
          },
          {
            "base_weights": [
              1.2833341e-3, 5.47224e-1, -1.0622437e-3, 4.0995183, 1.11326806e-1,
              1.6530233e-2, -3.6451265e-2, 3.089809e-1, 5.8980625e-2,
              9.078063e-1, -6.7524344e-2, 8.750974e-3, 9.748131e-2,
              -4.2652488e-2, 4.5112003e-2, -0, 9.833699e-2, 6.1019245e-3,
              -1.1896196e-2, 1.3329576e-3, -6.6759245e-4, 3.2383967e-3,
              6.3902377e-3, -1.4998631e-3, -3.296061e-3, 1.4070101e-3,
              5.453119e-3
            ],
            "categories": [],
            "categories_nodes": [],
            "categories_segments": [],
            "categories_sizes": [],
            "default_left": [
              0, 0, 0, 0, 0, 0, 0, 0, 0, 0, 0, 0, 0, 0, 0, 0, 0, 0, 0, 0, 0, 0,
              0, 0, 0, 0, 0
            ],
            "id": 5,
            "left_children": [
              1, 3, 5, 7, 9, 11, 13, -1, -1, 15, 17, 19, 21, 23, 25, -1, -1, -1,
              -1, -1, -1, -1, -1, -1, -1, -1, -1
            ],
            "loss_changes": [
              1.1374718e1, 5.6278725e1, 5.384678, 1.33256e1, 5.4672346,
              3.5714402, 1.4553523, 0, 0, 5.8354096, 1.0237198, 2.0886335,
              3.9043522e-1, 7.389507e-1, 1.4322957e-1, 0, 0, 0, 0, 0, 0, 0, 0,
              0, 0, 0, 0
            ],
            "parents": [
              2147483647, 0, 0, 1, 1, 2, 2, 3, 3, 4, 4, 5, 5, 6, 6, 9, 9, 10,
              10, 11, 11, 12, 12, 13, 13, 14, 14
            ],
            "right_children": [
              2, 4, 6, 8, 10, 12, 14, -1, -1, 16, 18, 20, 22, 24, 26, -1, -1,
              -1, -1, -1, -1, -1, -1, -1, -1, -1, -1
            ],
            "split_conditions": [
              3.5478016e-3, 2.0833334e-2, 4.4241887e-2, 4.555358e-1, -1.2475e-1,
              1.9182949e-1, 3.84e-1, 3.089809e-1, 5.8980625e-2, -2.174e-1,
              4.461983e-1, -1.3e-2, 6.333333e-1, 1.6835e-1, 9.3333334e-1, -0,
              9.833699e-2, 6.1019245e-3, -1.1896196e-2, 1.3329576e-3,
              -6.6759245e-4, 3.2383967e-3, 6.3902377e-3, -1.4998631e-3,
              -3.296061e-3, 1.4070101e-3, 5.453119e-3
            ],
            "split_indices": [
              0, 6, 10, 1, 11, 13, 13, 0, 0, 11, 1, 11, 4, 11, 4, 0, 0, 0, 0, 0,
              0, 0, 0, 0, 0, 0, 0
            ],
            "split_type": [
              0, 0, 0, 0, 0, 0, 0, 0, 0, 0, 0, 0, 0, 0, 0, 0, 0, 0, 0, 0, 0, 0,
              0, 0, 0, 0, 0
            ],
            "sum_hessian": [
              8.668e3, 3.7e1, 8.631e3, 3, 3.4e1, 5.756e3, 2.875e3, 1, 2, 6,
              2.8e1, 5.258e3, 4.98e2, 2.678e3, 1.97e2, 4, 2, 1.2e1, 1.6e1,
              2.917e3, 2.341e3, 2.49e2, 2.49e2, 1.75e3, 9.28e2, 1.63e2, 3.4e1
            ],
            "tree_param": {
              "num_deleted": "0",
              "num_feature": "17",
              "num_nodes": "27",
              "size_leaf_vector": "1"
            }
          },
          {
            "base_weights": [
              6.456799e-4, 6.2632936e-1, -1.7698888e-3, 2.649983e-1,
              3.012564e-1, 3.6190495e-2, -1.74593e-2, 1.3342404, -5.496076e-2,
              5.1852185e-2, -9.637583e-3, -2.409891e-2, 5.8873136e-2,
              1.5965074e-2, 1.0721769e-1, 1.8012917e-2, -8.47789e-3,
              2.1397572e-3, 6.866257e-3, 2.2831408e-3, -8.9250563e-4,
              1.7327332e-4, -1.991393e-3, 3.996551e-3, 8.0314913e-4
            ],
            "categories": [],
            "categories_nodes": [],
            "categories_segments": [],
            "categories_sizes": [],
            "default_left": [
              0, 0, 0, 0, 0, 0, 0, 0, 0, 0, 0, 0, 0, 0, 0, 0, 0, 0, 0, 0, 0, 0,
              0, 0, 0
            ],
            "id": 6,
            "left_children": [
              1, 3, 5, 7, -1, 9, 11, 13, 15, 17, 19, 21, 23, -1, -1, -1, -1, -1,
              -1, -1, -1, -1, -1, -1, -1
            ],
            "loss_changes": [
              1.3361148e1, 6.1583916e1, 5.1132207, 1.2002722e1, 0, 1.820276,
              3.0730853, 4.6612034, 1.2028891, 1.3563352, 2.7348125e-1,
              2.452318, 3.8523793e-1, 0, 0, 0, 0, 0, 0, 0, 0, 0, 0, 0, 0
            ],
            "parents": [
              2147483647, 0, 0, 1, 1, 2, 2, 3, 3, 5, 5, 6, 6, 7, 7, 8, 8, 9, 9,
              10, 10, 11, 11, 12, 12
            ],
            "right_children": [
              2, 4, 6, 8, -1, 10, 12, 14, 16, 18, 20, 22, 24, -1, -1, -1, -1,
              -1, -1, -1, -1, -1, -1, -1, -1
            ],
            "split_conditions": [
              3.5478016e-3, 3.3333334e-1, 3.9385e-1, -9.17e-2, 3.012564e-1,
              4.6687417e-2, 3.6666667e-1, 4.5766386e-1, -8.4926635e-2,
              9.615385e-2, 1.375e-1, -2.0231213e-2, 5.135616e-2, 1.5965074e-2,
              1.0721769e-1, 1.8012917e-2, -8.47789e-3, 2.1397572e-3,
              6.866257e-3, 2.2831408e-3, -8.9250563e-4, 1.7327332e-4,
              -1.991393e-3, 3.996551e-3, 8.0314913e-4
            ],
            "split_indices": [
              0, 4, 5, 11, 0, 10, 4, 7, 10, 13, 5, 10, 10, 0, 0, 0, 0, 0, 0, 0,
              0, 0, 0, 0, 0
            ],
            "split_type": [
              0, 0, 0, 0, 0, 0, 0, 0, 0, 0, 0, 0, 0, 0, 0, 0, 0, 0, 0, 0, 0, 0,
              0, 0, 0
            ],
            "sum_hessian": [
              8.632e3, 3.3e1, 8.599e3, 3.2e1, 1, 2.505e3, 6.094e3, 7, 2.5e1,
              1.875e3, 6.3e2, 5.613e3, 4.81e2, 4, 3, 4, 2.1e1, 1.702e3, 1.73e2,
              7.3e1, 5.57e2, 2.028e3, 3.585e3, 3.14e2, 1.67e2
            ],
            "tree_param": {
              "num_deleted": "0",
              "num_feature": "17",
              "num_nodes": "25",
              "size_leaf_vector": "1"
            }
          },
          {
            "base_weights": [
              3.7912832e-4, 2.1577159e-2, -3.2179933e-2, 1.3086951e-2,
              1.2910253e-1, -3.9031643e-2, 3.2078393e-2, 4.3031335e-2,
              -6.6773663e-3, 9.677787e-2, 5.603626e-1, -5.390739e-3,
              -4.698058e-2, 5.0619096e-2, -2.4401618e-3, 1.6823726e-3,
              3.7633888e-3, 1.2445603e-3, -8.116401e-4, 6.8873875e-3,
              3.13114e-3, 3.7920305e-3, 1.9607884e-1, 4.4141986e-4,
              -1.7042639e-3, -7.0236763e-4, -2.600636e-3, 4.285106e-4,
              3.3393342e-3, -1.3736824e-3, 1.258721e-3
            ],
            "categories": [],
            "categories_nodes": [],
            "categories_segments": [],
            "categories_sizes": [],
            "default_left": [
              0, 0, 0, 0, 0, 0, 0, 0, 0, 0, 0, 0, 0, 0, 0, 0, 0, 0, 0, 0, 0, 0,
              0, 0, 0, 0, 0, 0, 0, 0, 0
            ],
            "id": 7,
            "left_children": [
              1, 3, 5, 7, 9, 11, 13, 15, 17, 19, 21, 23, 25, 27, 29, -1, -1, -1,
              -1, -1, -1, -1, -1, -1, -1, -1, -1, -1, -1, -1, -1
            ],
            "loss_changes": [
              5.9234176, 4.6853166, 1.491992, 2.8805554, 4.872704, 7.918339e-1,
              2.2837248e-1, 5.277481e-1, 8.7207067e-1, 3.8515162e-1,
              3.8418427e1, 2.5692028e-1, 3.744197e-1, 1.0927206e-1, 7.304404e-2,
              0, 0, 0, 0, 0, 0, 0, 0, 0, 0, 0, 0, 0, 0, 0, 0
            ],
            "parents": [
              2147483647, 0, 0, 1, 1, 2, 2, 3, 3, 4, 4, 5, 5, 6, 6, 7, 7, 8, 8,
              9, 9, 10, 10, 11, 11, 12, 12, 13, 13, 14, 14
            ],
            "right_children": [
              2, 4, 6, 8, 10, 12, 14, 16, 18, 20, 22, 24, 26, 28, 30, -1, -1,
              -1, -1, -1, -1, -1, -1, -1, -1, -1, -1, -1, -1, -1, -1
            ],
            "split_conditions": [
              2.801245e-2, 2.9139072e-1, 1.9182949e-1, 4.3705e-1, 8.5918856e-1,
              3.6805e-1, 1.6835e-1, 4.2336148e-1, -9.915518e-2, -5.8692753e-2,
              1.4444445e-1, 9.871054e-2, -1.026e-1, 4.6666667e-1, 7.254408e-1,
              1.6823726e-3, 3.7633888e-3, 1.2445603e-3, -8.116401e-4,
              6.8873875e-3, 3.13114e-3, 3.7920305e-3, 1.9607884e-1,
              4.4141986e-4, -1.7042639e-3, -7.0236763e-4, -2.600636e-3,
              4.285106e-4, 3.3393342e-3, -1.3736824e-3, 1.258721e-3
            ],
            "split_indices": [
              10, 13, 13, 5, 12, 5, 11, 7, 10, 10, 3, 10, 11, 4, 13, 0, 0, 0, 0,
              0, 0, 0, 0, 0, 0, 0, 0, 0, 0, 0, 0
            ],
            "split_type": [
              0, 0, 0, 0, 0, 0, 0, 0, 0, 0, 0, 0, 0, 0, 0, 0, 0, 0, 0, 0, 0, 0,
              0, 0, 0, 0, 0, 0, 0, 0, 0
            ],
            "sum_hessian": [
              8.588e3, 5.211e3, 3.377e3, 4.835e3, 3.76e2, 3.059e3, 3.18e2,
              1.932e3, 2.903e3, 3.52e2, 2.4e1, 5.97e2, 2.462e3, 2.16e2, 1.02e2,
              1.51e3, 4.22e2, 6.62e2, 2.241e3, 1.52e2, 2e2, 2.2e1, 2, 3.88e2,
              2.09e2, 3.4e2, 2.122e3, 6.9e1, 1.47e2, 6.3e1, 3.9e1
            ],
            "tree_param": {
              "num_deleted": "0",
              "num_feature": "17",
              "num_nodes": "31",
              "size_leaf_vector": "1"
            }
          },
          {
            "base_weights": [
              4.3087915e-4, -6.9175125e-3, 8.295723e-2, 1.1492161e-2,
              -3.563487e-2, 2.2644648e-1, 4.9208485e-2, 3.100445e-2,
              -2.0532252e-2, -5.4403343e-3, -4.286935e-2, 1.2063353,
              1.3366242e-1, 6.630134e-2, -0, 2.8252478e-3, 1.1016707e-3,
              4.8903946e-4, -1.4813265e-3, 6.5001295e-5, -1.3837037e-3,
              -9.987092e-4, -2.5997625e-3, 6.0838386e-3, 2.88823e-1,
              6.7960876e-3, -0, 6.1251274e-3, 2.6356296e-3, -9.0532977e-4,
              1.5715035e-3
            ],
            "categories": [],
            "categories_nodes": [],
            "categories_segments": [],
            "categories_sizes": [],
            "default_left": [
              0, 0, 0, 0, 0, 0, 0, 0, 0, 0, 0, 0, 0, 0, 0, 0, 0, 0, 0, 0, 0, 0,
              0, 0, 0, 0, 0, 0, 0, 0, 0
            ],
            "id": 8,
            "left_children": [
              1, 3, 5, 7, 9, 11, 13, 15, 17, 19, 21, 23, 25, 27, 29, -1, -1, -1,
              -1, -1, -1, -1, -1, -1, -1, -1, -1, -1, -1, -1, -1
            ],
            "loss_changes": [
              5.3370247, 4.251415, 3.337688, 3.052737, 6.6217446e-1, 1.135178e1,
              4.7321296e-1, 6.549339e-1, 5.166279e-1, 1.06438026e-1,
              4.899211e-1, 5.087535e1, 2.0102024e-2, 2.3509145e-1, 9.404013e-2,
              0, 0, 0, 0, 0, 0, 0, 0, 0, 0, 0, 0, 0, 0, 0, 0
            ],
            "parents": [
              2147483647, 0, 0, 1, 1, 2, 2, 3, 3, 4, 4, 5, 5, 6, 6, 7, 7, 8, 8,
              9, 9, 10, 10, 11, 11, 12, 12, 13, 13, 14, 14
            ],
            "right_children": [
              2, 4, 6, 8, 10, 12, 14, 16, 18, 20, 22, 24, 26, 28, 30, -1, -1,
              -1, -1, -1, -1, -1, -1, -1, -1, -1, -1, -1, -1, -1, -1
            ],
            "split_conditions": [
              2.3027718e-1, 2.801245e-2, -8.4926635e-2, 5.772e-1, -1.026e-1,
              2.0833334e-2, 1.6835e-1, 2.633e-1, -9.470876e-2, 1.0337928e-1,
              4.754e-1, 1, 9.3525e-1, 2.7215e-1, 7.254408e-1, 2.8252478e-3,
              1.1016707e-3, 4.8903946e-4, -1.4813265e-3, 6.5001295e-5,
              -1.3837037e-3, -9.987092e-4, -2.5997625e-3, 6.0838386e-3,
              2.88823e-1, 6.7960876e-3, -0, 6.1251274e-3, 2.6356296e-3,
              -9.0532977e-4, 1.5715035e-3
            ],
            "split_indices": [
              13, 10, 10, 5, 11, 6, 11, 5, 10, 10, 5, 2, 5, 5, 13, 0, 0, 0, 0,
              0, 0, 0, 0, 0, 0, 0, 0, 0, 0, 0, 0
            ],
            "split_type": [
              0, 0, 0, 0, 0, 0, 0, 0, 0, 0, 0, 0, 0, 0, 0, 0, 0, 0, 0, 0, 0, 0,
              0, 0, 0, 0, 0, 0, 0, 0, 0
            ],
            "sum_hessian": [
              8.736e3, 8.017e3, 7.19e2, 4.875e3, 3.142e3, 1.33e2, 5.86e2,
              3.039e3, 1.836e3, 6.21e2, 2.521e3, 1e1, 1.23e2, 4.3e2, 1.56e2,
              7.75e2, 2.264e3, 4.11e2, 1.425e3, 4.6e2, 1.61e2, 7.35e2, 1.786e3,
              9, 1, 1.2e2, 3, 7.5e1, 3.55e2, 9.3e1, 6.3e1
            ],
            "tree_param": {
              "num_deleted": "0",
              "num_feature": "17",
              "num_nodes": "31",
              "size_leaf_vector": "1"
            }
          },
          {
            "base_weights": [
              7.393096e-4, 4.947381e-1, -1.2119625e-3, 1.6328636e-1,
              2.8160244e-1, 2.7393008e-2, -1.771088e-2, 3.7662902e-1,
              -3.36399e-1, 2.0216482e-2, 9.5276356e-2, -2.3994517e-2,
              4.2585447e-2, 3.501222e-2, -2.6724513e-3, -0, -1.8311597e-2,
              1.893035e-3, 4.4344467e-4, 3.277388e-3, 6.339392e-3,
              -6.6897523e-4, -2.275497e-3, 1.1514735e-3, 3.909066e-3
            ],
            "categories": [],
            "categories_nodes": [],
            "categories_segments": [],
            "categories_sizes": [],
            "default_left": [
              0, 0, 0, 0, 0, 0, 0, 0, 0, 0, 0, 0, 0, 0, 0, 0, 0, 0, 0, 0, 0, 0,
              0, 0, 0
            ],
            "id": 9,
            "left_children": [
              1, 3, 5, 7, -1, 9, 11, 13, 15, 17, 19, 21, 23, -1, -1, -1, -1, -1,
              -1, -1, -1, -1, -1, -1, -1
            ],
            "loss_changes": [
              8.574719, 5.5779663e1, 4.0567827, 3.7713556, 0, 1.4685688,
              2.0638223, 3.8403215, 7.548988e-2, 5.4592335e-1, 1.7000175e-1,
              1.1029716, 3.0191523e-1, 0, 0, 0, 0, 0, 0, 0, 0, 0, 0, 0, 0
            ],
            "parents": [
              2147483647, 0, 0, 1, 1, 2, 2, 3, 3, 5, 5, 6, 6, 7, 7, 8, 8, 9, 9,
              10, 10, 11, 11, 12, 12
            ],
            "right_children": [
              2, 4, 6, 8, -1, 10, 12, 14, 16, 18, 20, 22, 24, -1, -1, -1, -1,
              -1, -1, -1, -1, -1, -1, -1, -1
            ],
            "split_conditions": [
              3.5478016e-3, 3.0078125e-1, -3.0902624e-2, 6e-1, 2.8160244e-1,
              1.6666667e-1, 1.7603911e-1, 2.4232993e-2, 3.9506447e-1,
              -1.0071143e-1, 5.673759e-1, 8.159182e-2, 7.254408e-1, 3.501222e-2,
              -2.6724513e-3, -0, -1.8311597e-2, 1.893035e-3, 4.4344467e-4,
              3.277388e-3, 6.339392e-3, -6.6897523e-4, -2.275497e-3,
              1.1514735e-3, 3.909066e-3
            ],
            "split_indices": [
              0, 9, 10, 8, 0, 4, 13, 10, 1, 10, 13, 10, 13, 0, 0, 0, 0, 0, 0, 0,
              0, 0, 0, 0, 0
            ],
            "split_type": [
              0, 0, 0, 0, 0, 0, 0, 0, 0, 0, 0, 0, 0, 0, 0, 0, 0, 0, 0, 0, 0, 0,
              0, 0, 0
            ],
            "sum_hessian": [
              8.638e3, 3.4e1, 8.604e3, 3.3e1, 1, 3.136e3, 5.468e3, 2.4e1, 9,
              2.844e3, 2.92e2, 4.96e3, 5.08e2, 1.4e1, 1e1, 1, 8, 1.095e3,
              1.749e3, 1.6e2, 1.32e2, 3.338e3, 1.622e3, 3.38e2, 1.7e2
            ],
            "tree_param": {
              "num_deleted": "0",
              "num_feature": "17",
              "num_nodes": "25",
              "size_leaf_vector": "1"
            }
          },
          {
            "base_weights": [
              5.8548636e-4, 6.8101615e-1, -2.0394966e-3, 2.8618927, -0,
              2.3848752e-2, -1.8820627e-2, 4.0371876, 2.761507e-2, 5.537309e-1,
              -1.0909775e-1, 1.66459e-2, 9.064899e-2, -2.255011e-2,
              6.0406264e-2, 7.253518e-2, 2.5556377e-1, -0, 4.018721e-2,
              -1.2864085e-2, 2.9634763e-3, 1.4712863e-3, -8.386963e-4,
              5.5182003e-3, 1.519005e-3, 8.542492e-4, -1.461427e-3,
              4.7571296e-3, 1.755557e-3
            ],
            "categories": [],
            "categories_nodes": [],
            "categories_segments": [],
            "categories_sizes": [],
            "default_left": [
              0, 0, 0, 0, 0, 0, 0, 0, 0, 0, 0, 0, 0, 0, 0, 0, 0, 0, 0, 0, 0, 0,
              0, 0, 0, 0, 0, 0, 0
            ],
            "id": 10,
            "left_children": [
              1, 3, 5, 7, 9, 11, 13, 15, -1, 17, 19, 21, 23, 25, 27, -1, -1, -1,
              -1, -1, -1, -1, -1, -1, -1, -1, -1, -1, -1
            ],
            "loss_changes": [
              1.5801522e1, 4.975482e1, 3.7440596, 1.7191109e1, 1.806843,
              1.571138, 1.5319073, 3.1946182, 0, 4.049245e-1, 6.880895e-1,
              1.3133168, 3.0887628e-1, 1.3340421, 1.3362426e-1, 0, 0, 0, 0, 0,
              0, 0, 0, 0, 0, 0, 0, 0, 0
            ],
            "parents": [
              2147483647, 0, 0, 1, 1, 2, 2, 3, 3, 4, 4, 5, 5, 6, 6, 7, 7, 9, 9,
              10, 10, 11, 11, 12, 12, 13, 13, 14, 14
            ],
            "right_children": [
              2, 4, 6, 8, 10, 12, 14, 16, -1, 18, 20, 22, 24, 26, 28, -1, -1,
              -1, -1, -1, -1, -1, -1, -1, -1, -1, -1, -1, -1
            ],
            "split_conditions": [
              3.5478016e-3, -9.17e-2, 4.576e-1, 4.682081e-1, 3.8861716e-1,
              1.2834224e-1, 6.161369e-1, 3.957e-1, 2.761507e-2, 3.370387e-1,
              6e-1, 4.4241887e-2, 5.135616e-2, -1.576e-1, -1.734104e-2,
              7.253518e-2, 2.5556377e-1, -0, 4.018721e-2, -1.2864085e-2,
              2.9634763e-3, 1.4712863e-3, -8.386963e-4, 5.5182003e-3,
              1.519005e-3, 8.542492e-4, -1.461427e-3, 4.7571296e-3, 1.755557e-3
            ],
            "split_indices": [
              0, 11, 5, 1, 1, 13, 13, 5, 0, 1, 2, 10, 10, 11, 10, 0, 0, 0, 0, 0,
              0, 0, 0, 0, 0, 0, 0, 0, 0
            ],
            "split_type": [
              0, 0, 0, 0, 0, 0, 0, 0, 0, 0, 0, 0, 0, 0, 0, 0, 0, 0, 0, 0, 0, 0,
              0, 0, 0, 0, 0, 0, 0
            ],
            "sum_hessian": [
              8.655e3, 3.3e1, 8.622e3, 7, 2.6e1, 3.379e3, 5.243e3, 4, 3, 4,
              2.2e1, 3.058e3, 3.21e2, 5.014e3, 2.29e2, 2, 2, 2, 2, 1.3e1, 9,
              2.223e3, 8.35e2, 2.35e2, 8.6e1, 7.12e2, 4.302e3, 8.7e1, 1.42e2
            ],
            "tree_param": {
              "num_deleted": "0",
              "num_feature": "17",
              "num_nodes": "29",
              "size_leaf_vector": "1"
            }
          },
          {
            "base_weights": [
              4.357052e-4, 4.5868424e-1, -1.1420707e-3, 9.974269e-2,
              2.6817328e-1, 3.3914637e-2, -1.3449365e-2, 3.881837e-1,
              -2.6884815e-1, 2.67001e-2, 1.0246998e-1, 1.4415787e-2,
              -2.4884183e-2, 3.912553e-2, -1.8766577e-3, -2.0078814e-2,
              -1.3142313e-3, 1.7304365e-3, -8.563826e-4, 5.7773422e-3, -0,
              4.1718507e-4, 4.5385133e-3, -1.5055577e-3, 1.3018155e-3
            ],
            "categories": [],
            "categories_nodes": [],
            "categories_segments": [],
            "categories_sizes": [],
            "default_left": [
              0, 0, 0, 0, 0, 0, 0, 0, 0, 0, 0, 0, 0, 0, 0, 0, 0, 0, 0, 0, 0, 0,
              0, 0, 0
            ],
            "id": 11,
            "left_children": [
              1, 3, 5, 7, -1, 9, 11, 13, 15, 17, 19, 21, 23, -1, -1, -1, -1, -1,
              -1, -1, -1, -1, -1, -1, -1
            ],
            "loss_changes": [
              6.531804, 5.130985e1, 3.7382576, 3.3535318, 0, 1.0440342,
              2.0579078, 3.423547, 1.9404924e-1, 7.167796e-1, 2.2967315e-1,
              8.129662e-1, 1.2218335, 0, 0, 0, 0, 0, 0, 0, 0, 0, 0, 0, 0
            ],
            "parents": [
              2147483647, 0, 0, 1, 1, 2, 2, 3, 3, 5, 5, 6, 6, 7, 7, 8, 8, 9, 9,
              10, 10, 11, 11, 12, 12
            ],
            "right_children": [
              2, 4, 6, 8, -1, 10, 12, 14, 16, 18, 20, 22, 24, -1, -1, -1, -1,
              -1, -1, -1, -1, -1, -1, -1, -1
            ],
            "split_conditions": [
              3.5478016e-3, 3.0078125e-1, 3.6805e-1, 5.6555e-1, 2.6817328e-1,
              1.2834224e-1, -4.4686526e-2, 6.875e-1, 5.611111e-1, 7.959093e-2,
              1.01600714e-1, 3.2307693e-1, 1.9534884e-1, 3.912553e-2,
              -1.8766577e-3, -2.0078814e-2, -1.3142313e-3, 1.7304365e-3,
              -8.563826e-4, 5.7773422e-3, -0, 4.1718507e-4, 4.5385133e-3,
              -1.5055577e-3, 1.3018155e-3
            ],
            "split_indices": [
              0, 9, 5, 5, 0, 13, 10, 6, 3, 10, 10, 13, 13, 0, 0, 0, 0, 0, 0, 0,
              0, 0, 0, 0, 0
            ],
            "split_type": [
              0, 0, 0, 0, 0, 0, 0, 0, 0, 0, 0, 0, 0, 0, 0, 0, 0, 0, 0, 0, 0, 0,
              0, 0, 0
            ],
            "sum_hessian": [
              8.716e3, 3e1, 8.686e3, 2.9e1, 1, 2.246e3, 6.44e3, 1.7e1, 1.2e1,
              2.04e3, 2.06e2, 1.861e3, 4.579e3, 9, 8, 6, 6, 1.738e3, 3.02e2,
              1.79e2, 2.7e1, 1.731e3, 1.3e2, 4.162e3, 4.17e2
            ],
            "tree_param": {
              "num_deleted": "0",
              "num_feature": "17",
              "num_nodes": "25",
              "size_leaf_vector": "1"
            }
          },
          {
            "base_weights": [
              -0, 4.652999e-1, -1.989172e-3, 1.6548684e-1, 2.6146895e-1,
              3.392403e-2, -1.2541634e-2, 9.924663e-1, -2.2593956e-2,
              2.666612e-1, 3.1469144e-2, -1.8032404e-2, 3.8029995e-2,
              -2.7543951e-3, 9.58452e-2, 2.3530139e-2, -8.289253e-3,
              5.7964255e-3, 2.3273593e-2, 1.2403924e-3, 4.8344065e-3,
              6.763216e-4, -1.2943962e-3, 8.28017e-4, 3.0501622e-3
            ],
            "categories": [],
            "categories_nodes": [],
            "categories_segments": [],
            "categories_sizes": [],
            "default_left": [
              0, 0, 0, 0, 0, 0, 0, 0, 0, 0, 0, 0, 0, 0, 0, 0, 0, 0, 0, 0, 0, 0,
              0, 0, 0
            ],
            "id": 12,
            "left_children": [
              1, 3, 5, 7, -1, 9, 11, 13, 15, 17, 19, 21, 23, -1, -1, -1, -1, -1,
              -1, -1, -1, -1, -1, -1, -1
            ],
            "loss_changes": [
              7.8281455, 4.7857166e1, 3.2462466, 5.951223, 0, 9.5151854e-1,
              1.8380733, 7.815295, 1.9736302, 1.94749e-1, 7.7272165e-1,
              1.4967246, 2.7735347e-1, 0, 0, 0, 0, 0, 0, 0, 0, 0, 0, 0, 0
            ],
            "parents": [
              2147483647, 0, 0, 1, 1, 2, 2, 3, 3, 5, 5, 6, 6, 7, 7, 8, 8, 9, 9,
              10, 10, 11, 11, 12, 12
            ],
            "right_children": [
              2, 4, 6, 8, -1, 10, 12, 14, 16, 18, 20, 22, 24, -1, -1, -1, -1,
              -1, -1, -1, -1, -1, -1, -1, -1
            ],
            "split_conditions": [
              3.5478016e-3, 3.0078125e-1, 3.4525e-1, -9.17e-2, 2.6146895e-1,
              1.9441828e-2, 2e-1, 3.9385e-1, 3.8861716e-1, 1.8e-1, 2e-1,
              -1.387e-1, 6.333333e-1, -2.7543951e-3, 9.58452e-2, 2.3530139e-2,
              -8.289253e-3, 5.7964255e-3, 2.3273593e-2, 1.2403924e-3,
              4.8344065e-3, 6.763216e-4, -1.2943962e-3, 8.28017e-4, 3.0501622e-3
            ],
            "split_indices": [
              0, 9, 5, 11, 0, 0, 4, 5, 1, 12, 4, 11, 4, 0, 0, 0, 0, 0, 0, 0, 0,
              0, 0, 0, 0
            ],
            "split_type": [
              0, 0, 0, 0, 0, 0, 0, 0, 0, 0, 0, 0, 0, 0, 0, 0, 0, 0, 0, 0, 0, 0,
              0, 0, 0
            ],
            "sum_hessian": [
              8.627e3, 3.5e1, 8.592e3, 3.4e1, 1, 1.94e3, 6.652e3, 6, 2.8e1,
              1.7e1, 1.923e3, 6.01e3, 6.42e2, 3, 3, 5, 2.3e1, 1.2e1, 5, 1.753e3,
              1.7e2, 1.185e3, 4.825e3, 3.44e2, 2.98e2
            ],
            "tree_param": {
              "num_deleted": "0",
              "num_feature": "17",
              "num_nodes": "25",
              "size_leaf_vector": "1"
            }
          },
          {
            "base_weights": [
              1.310493e-3, 5.707314e-1, -7.964178e-4, 2.5427645e-1,
              2.5493222e-1, 2.3444617e-2, -1.5999038e-2, 1.1021812, -0,
              4.8080064e-2, 1.0411426e-2, 1.3203041e-2, -2.4136756e-2,
              8.5867934e-2, -6.192091e-3, 9.584036e-3, -1.2024148e-2,
              1.36064505e-2, 2.2405265e-3, 3.0608405e-4, 3.2760405e-3,
              3.712263e-4, 3.8685002e-3, -1.4341327e-3, 8.86044e-4
            ],
            "categories": [],
            "categories_nodes": [],
            "categories_segments": [],
            "categories_sizes": [],
            "default_left": [
              0, 0, 0, 0, 0, 0, 0, 0, 0, 0, 0, 0, 0, 0, 0, 0, 0, 0, 0, 0, 0, 0,
              0, 0, 0
            ],
            "id": 13,
            "left_children": [
              1, 3, 5, 7, -1, 9, 11, 13, 15, 17, 19, 21, 23, -1, -1, -1, -1, -1,
              -1, -1, -1, -1, -1, -1, -1
            ],
            "loss_changes": [
              1.0739773e1, 4.3312126e1, 3.196206, 6.434614, 0, 1.0407292,
              1.2769126, 6.288992, 1.2240167, 6.6442704e-1, 4.8268712e-1,
              3.8454878e-1, 8.0459666e-1, 0, 0, 0, 0, 0, 0, 0, 0, 0, 0, 0, 0
            ],
            "parents": [
              2147483647, 0, 0, 1, 1, 2, 2, 3, 3, 5, 5, 6, 6, 7, 7, 8, 8, 9, 9,
              10, 10, 11, 11, 12, 12
            ],
            "right_children": [
              2, 4, 6, 8, -1, 10, 12, 14, 16, 18, 20, 22, 24, -1, -1, -1, -1,
              -1, -1, -1, -1, -1, -1, -1, -1
            ],
            "split_conditions": [
              3.5478016e-3, 3.3333334e-1, -2.5122277e-2, -9.17e-2, 2.5493222e-1,
              3.877e-1, 3.6805e-1, 6.875e-1, 4.6932217e-1, 1.9441828e-2,
              2.9568788e-1, 3e-1, 1.7603911e-1, 8.5867934e-2, -6.192091e-3,
              9.584036e-3, -1.2024148e-2, 1.36064505e-2, 2.2405265e-3,
              3.0608405e-4, 3.2760405e-3, 3.712263e-4, 3.8685002e-3,
              -1.4341327e-3, 8.86044e-4
            ],
            "split_indices": [
              0, 4, 10, 11, 0, 5, 5, 6, 7, 0, 13, 4, 13, 0, 0, 0, 0, 0, 0, 0, 0,
              0, 0, 0, 0
            ],
            "split_type": [
              0, 0, 0, 0, 0, 0, 0, 0, 0, 0, 0, 0, 0, 0, 0, 0, 0, 0, 0, 0, 0, 0,
              0, 0, 0
            ],
            "sum_hessian": [
              8.713e3, 3.2e1, 8.681e3, 3.1e1, 1, 3.333e3, 5.348e3, 6, 2.5e1,
              1.139e3, 2.194e3, 1.152e3, 4.196e3, 4, 2, 1.5e1, 1e1, 1.3e1,
              1.126e3, 2.045e3, 1.49e2, 1.065e3, 8.7e1, 3.796e3, 4e2
            ],
            "tree_param": {
              "num_deleted": "0",
              "num_feature": "17",
              "num_nodes": "25",
              "size_leaf_vector": "1"
            }
          },
          {
            "base_weights": [
              -4.0884734e-5, 1.189844e-2, -2.7949113e-2, 3.2584614e-1,
              1.0668337e-2, -1.8198851e-2, -4.5502286e-2, 1.1407486, -0,
              6.446216e-3, 8.276784e-2, -2.2536805e-2, 2.4909435e-2,
              -1.960112e-1, -4.289229e-2, -0, 7.124065e-2, 2.6522005e-2,
              -8.954141e-3, 1.4433559e-3, -3.0575358e-4, 6.7363265e-3,
              3.4108136e-3, 7.070607e-4, -1.3283194e-3, 2.1071965e-3,
              -1.6074324e-4, -1.1027245e-2, -0, -2.2658536e-3, 4.3733884e-4
            ],
            "categories": [],
            "categories_nodes": [],
            "categories_segments": [],
            "categories_sizes": [],
            "default_left": [
              0, 0, 0, 0, 0, 0, 0, 0, 0, 0, 0, 0, 0, 0, 0, 0, 0, 0, 0, 0, 0, 0,
              0, 0, 0, 0, 0, 0, 0, 0, 0
            ],
            "id": 14,
            "left_children": [
              1, 3, 5, 7, 9, 11, 13, 15, 17, 19, 21, 23, 25, 27, 29, -1, -1, -1,
              -1, -1, -1, -1, -1, -1, -1, -1, -1, -1, -1, -1, -1
            ],
            "loss_changes": [
              2.8932502, 2.1654754, 4.1350436e-1, 5.471978, 1.7907736,
              3.1652993e-1, 2.304002e-1, 2.3426166, 1.8237519, 1.6182823,
              1.3657618e-1, 2.3596942e-1, 8.9882694e-2, 7.399583e-2,
              1.3149881e-1, 0, 0, 0, 0, 0, 0, 0, 0, 0, 0, 0, 0, 0, 0, 0, 0
            ],
            "parents": [
              2147483647, 0, 0, 1, 1, 2, 2, 3, 3, 4, 4, 5, 5, 6, 6, 7, 7, 8, 8,
              9, 9, 10, 10, 11, 11, 12, 12, 13, 13, 14, 14
            ],
            "right_children": [
              2, 4, 6, 8, 10, 12, 14, 16, 18, 20, 22, 24, 26, 28, 30, -1, -1,
              -1, -1, -1, -1, -1, -1, -1, -1, -1, -1, -1, -1, -1, -1
            ],
            "split_conditions": [
              5.135616e-2, 3.5478016e-3, 1.6835e-1, -1.2475e-1, 4.4562334e-1,
              2.4844721e-1, 5.8714957e-3, 3.3548245e-1, 3.8861716e-1, 4.2375e-1,
              1.7251499e-1, 2.2175e-1, 1.2650067e-1, 1.8227848e-1, 7.254408e-1,
              -0, 7.124065e-2, 2.6522005e-2, -8.954141e-3, 1.4433559e-3,
              -3.0575358e-4, 6.7363265e-3, 3.4108136e-3, 7.070607e-4,
              -1.3283194e-3, 2.1071965e-3, -1.6074324e-4, -1.1027245e-2, -0,
              -2.2658536e-3, 4.3733884e-4
            ],
            "split_indices": [
              10, 0, 11, 11, 13, 13, 0, 1, 1, 5, 0, 5, 10, 12, 13, 0, 0, 0, 0,
              0, 0, 0, 0, 0, 0, 0, 0, 0, 0, 0, 0
            ],
            "split_type": [
              0, 0, 0, 0, 0, 0, 0, 0, 0, 0, 0, 0, 0, 0, 0, 0, 0, 0, 0, 0, 0, 0,
              0, 0, 0, 0, 0, 0, 0, 0, 0
            ],
            "sum_hessian": [
              8.657e3, 6.051e3, 2.606e3, 2.1e1, 6.03e3, 1.695e3, 9.11e2, 5,
              1.6e1, 5.704e3, 3.26e2, 1.551e3, 1.44e2, 1.1e1, 9e2, 1, 4, 4,
              1.2e1, 2.062e3, 3.642e3, 6.2e1, 2.64e2, 1.41e2, 1.41e3, 1e2,
              4.4e1, 1e1, 1, 8.69e2, 3.1e1
            ],
            "tree_param": {
              "num_deleted": "0",
              "num_feature": "17",
              "num_nodes": "31",
              "size_leaf_vector": "1"
            }
          },
          {
            "base_weights": [
              1.3812624e-3, 4.1724357e-1, -3.0275254e-4, 3.7745965,
              9.4028786e-2, 1.9522192e-2, -1.6546845e-2, 2.3816824e-2,
              2.4677792e-1, 7.364447e-1, -8.128069e-2, 1.3957551e-2,
              7.313513e-2, -5.579082e-3, -3.368377e-2, -1.0336223e-2,
              5.843109e-2, -1.16216345e-2, 9.564678e-3, 2.9377341e-3,
              4.3172232e-4, 2.6561858e-3, 5.8893124e-3, 1.8951474e-3,
              -5.098459e-4, -1.8839177e-3, 8.834161e-6
            ],
            "categories": [],
            "categories_nodes": [],
            "categories_segments": [],
            "categories_sizes": [],
            "default_left": [
              0, 0, 0, 0, 0, 0, 0, 0, 0, 0, 0, 0, 0, 0, 0, 0, 0, 0, 0, 0, 0, 0,
              0, 0, 0, 0, 0
            ],
            "id": 15,
            "left_children": [
              1, 3, 5, 7, 9, 11, 13, -1, -1, 15, 17, 19, 21, 23, 25, -1, -1, -1,
              -1, -1, -1, -1, -1, -1, -1, -1, -1
            ],
            "loss_changes": [
              6.2516437, 3.6776028e1, 2.7664318, 6.4305267, 4.2165747,
              1.1061177, 8.7070537e-1, 0, 0, 3.9834614, 1.1774361, 8.0136144e-1,
              2.2459793e-1, 5.7043916e-1, 2.664156e-1, 0, 0, 0, 0, 0, 0, 0, 0,
              0, 0, 0, 0
            ],
            "parents": [
              2147483647, 0, 0, 1, 1, 2, 2, 3, 3, 4, 4, 5, 5, 6, 6, 9, 9, 10,
              10, 11, 11, 12, 12, 13, 13, 14, 14
            ],
            "right_children": [
              2, 4, 6, 8, 10, 12, 14, -1, -1, 16, 18, 20, 22, 24, 26, -1, -1,
              -1, -1, -1, -1, -1, -1, -1, -1, -1, -1
            ],
            "split_conditions": [
              3.5478016e-3, -9.337483e-2, -2.48e-2, 3.7683415e-1, -1.2475e-1,
              1.6783217e-1, 5.3579368e-2, 2.3816824e-2, 2.4677792e-1,
              3.8333333e-1, 4.9484536e-1, 1.586e-1, 7.898734e-1, 3.2785e-1,
              9.615385e-2, -1.0336223e-2, 5.843109e-2, -1.16216345e-2,
              9.564678e-3, 2.9377341e-3, 4.3172232e-4, 2.6561858e-3,
              5.8893124e-3, 1.8951474e-3, -5.098459e-4, -1.8839177e-3,
              8.834161e-6
            ],
            "split_indices": [
              0, 10, 11, 1, 11, 13, 10, 0, 0, 3, 12, 5, 13, 5, 13, 0, 0, 0, 0,
              0, 0, 0, 0, 0, 0, 0, 0
            ],
            "split_type": [
              0, 0, 0, 0, 0, 0, 0, 0, 0, 0, 0, 0, 0, 0, 0, 0, 0, 0, 0, 0, 0, 0,
              0, 0, 0, 0, 0
            ],
            "sum_hessian": [
              8.628e3, 3.5e1, 8.593e3, 2, 3.3e1, 3.856e3, 4.737e3, 1, 1, 7,
              2.6e1, 3.503e3, 3.53e2, 2.907e3, 1.83e3, 2, 5, 1.8e1, 8, 3.61e2,
              3.142e3, 2.53e2, 1e2, 2.68e2, 2.639e3, 1.65e3, 1.8e2
            ],
            "tree_param": {
              "num_deleted": "0",
              "num_feature": "17",
              "num_nodes": "27",
              "size_leaf_vector": "1"
            }
          },
          {
            "base_weights": [
              9.940291e-4, -3.7101095e-3, 7.8972004e-2, 1.9274998e-2,
              -1.698464e-2, 5.6361515e-2, 3.9085096e-1, 5.4918684e-2,
              1.4548174e-2, 3.3007453e-3, -2.7038792e-2, 1.1416537e-1,
              4.2268064e-2, 2.4060845e-1, 7.686751e-2, 3.0931334e-3,
              6.033936e-4, 6.753847e-5, 1.2104388e-3, 3.3566204e-3,
              2.4972336e-5, -2.001455e-3, -9.255777e-4, 3.54828e-3, 8.045068e-3,
              -0, 2.842051e-3, -0, 4.4763675e-3
            ],
            "categories": [],
            "categories_nodes": [],
            "categories_segments": [],
            "categories_sizes": [],
            "default_left": [
              0, 0, 0, 0, 0, 0, 0, 0, 0, 0, 0, 0, 0, 0, 0, 0, 0, 0, 0, 0, 0, 0,
              0, 0, 0, 0, 0, 0, 0
            ],
            "id": 16,
            "left_children": [
              1, 3, 5, 7, 9, 11, 13, 15, 17, 19, 21, 23, 25, -1, 27, -1, -1, -1,
              -1, -1, -1, -1, -1, -1, -1, -1, -1, -1, -1
            ],
            "loss_changes": [
              3.2094429, 2.4855766, 3.2661297, 4.6485758e-1, 1.0684314,
              2.9740214e-1, 4.1608646e1, 6.196916e-2, 3.2326394e-1,
              2.7030897e-1, 3.5547352e-1, 4.2242646e-2, 2.2183323e-1, 0,
              9.19643e-3, 0, 0, 0, 0, 0, 0, 0, 0, 0, 0, 0, 0, 0, 0
            ],
            "parents": [
              2147483647, 0, 0, 1, 1, 2, 2, 3, 3, 4, 4, 5, 5, 6, 6, 7, 7, 8, 8,
              9, 9, 10, 10, 11, 11, 12, 12, 14, 14
            ],
            "right_children": [
              2, 4, 6, 8, 10, 12, 14, 16, 18, 20, 22, 24, 26, -1, 28, -1, -1,
              -1, -1, -1, -1, -1, -1, -1, -1, -1, -1, -1, -1
            ],
            "split_conditions": [
              5e-1, -7.525e-2, 8.5918856e-1, 1.586e-1, 4.894e-1, 3.1075e-1,
              4.3548387e-1, 5.2249634e-1, 4.4944325e-1, 1.305e-1, 5.014573e-1,
              7.6666665e-1, 6.161369e-1, 2.4060845e-1, 5.959368e-1,
              3.0931334e-3, 6.033936e-4, 6.753847e-5, 1.2104388e-3,
              3.3566204e-3, 2.4972336e-5, -2.001455e-3, -9.255777e-4,
              3.54828e-3, 8.045068e-3, -0, 2.842051e-3, -0, 4.4763675e-3
            ],
            "split_indices": [
              4, 11, 12, 5, 5, 5, 13, 12, 7, 5, 7, 4, 13, 0, 13, 0, 0, 0, 0, 0,
              0, 0, 0, 0, 0, 0, 0, 0, 0
            ],
            "split_type": [
              0, 0, 0, 0, 0, 0, 0, 0, 0, 0, 0, 0, 0, 0, 0, 0, 0, 0, 0, 0, 0, 0,
              0, 0, 0, 0, 0, 0, 0
            ],
            "sum_hessian": [
              8.645e3, 8.148e3, 4.97e2, 2.969e3, 5.179e3, 4.66e2, 3.1e1, 3.34e2,
              2.635e3, 1.7e3, 3.479e3, 8.3e1, 3.83e2, 1, 3e1, 2.77e2, 5.7e1,
              1.136e3, 1.499e3, 6.3e1, 1.637e3, 1.354e3, 2.125e3, 5e1, 3.3e1,
              1.03e2, 2.8e2, 7, 2.3e1
            ],
            "tree_param": {
              "num_deleted": "0",
              "num_feature": "17",
              "num_nodes": "29",
              "size_leaf_vector": "1"
            }
          },
          {
            "base_weights": [
              1.2593108e-3, 2.5410749e-2, -1.2592235e-2, 1.8599402e-2,
              1.4211969e-1, 2.1695178e-2, -1.8644106e-2, 5.9036933e-2,
              1.3355378e-2, 1.1898881, 8.675608e-2, 1.6401505e-2, 9.48636e-2,
              -2.3247706e-2, 2.4358738e-2, 1.5077654e-3, 3.394962e-3,
              8.742472e-4, -1.0698272e-3, -0, 2.3459326e-1, -0, 4.7338475e-3,
              3.1805553e-3, 5.443845e-4, -0, 5.880436e-3, -8.9320214e-4,
              -2.2565597e-3, 1.6581205e-3, -6.4970576e-4
            ],
            "categories": [],
            "categories_nodes": [],
            "categories_segments": [],
            "categories_sizes": [],
            "default_left": [
              0, 0, 0, 0, 0, 0, 0, 0, 0, 0, 0, 0, 0, 0, 0, 0, 0, 0, 0, 0, 0, 0,
              0, 0, 0, 0, 0, 0, 0, 0, 0
            ],
            "id": 17,
            "left_children": [
              1, 3, 5, 7, 9, 11, 13, 15, 17, 19, 21, 23, 25, 27, 29, -1, -1, -1,
              -1, -1, -1, -1, -1, -1, -1, -1, -1, -1, -1, -1, -1
            ],
            "loss_changes": [
              2.893764, 2.4282289, 1.1343355, 5.9706104e-1, 9.119848,
              2.5616136e-1, 9.233333e-1, 3.390324e-2, 3.8001233e-1, 3.2700523e1,
              7.290149e-2, 1.6041046e-1, 5.215645e-2, 4.6533918e-1,
              1.5553457e-1, 0, 0, 0, 0, 0, 0, 0, 0, 0, 0, 0, 0, 0, 0, 0, 0
            ],
            "parents": [
              2147483647, 0, 0, 1, 1, 2, 2, 3, 3, 4, 4, 5, 5, 6, 6, 7, 7, 8, 8,
              9, 9, 10, 10, 11, 11, 12, 12, 13, 13, 14, 14
            ],
            "right_children": [
              2, 4, 6, 8, 10, 12, 14, 16, 18, 20, 22, 24, 26, 28, 30, -1, -1,
              -1, -1, -1, -1, -1, -1, -1, -1, -1, -1, -1, -1, -1, -1
            ],
            "split_conditions": [
              -6.98e-2, 5e-1, 3.625e-1, 1.586e-1, 4.3548387e-1, 3.2307693e-1,
              1.5075377e-1, 1.953125e-2, 6.887e-1, 1, 6e-1, 1.305e-1, 2e-1,
              2.787e-1, 7.708333e-1, 1.5077654e-3, 3.394962e-3, 8.742472e-4,
              -1.0698272e-3, -0, 2.3459326e-1, -0, 4.7338475e-3, 3.1805553e-3,
              5.443845e-4, -0, 5.880436e-3, -8.9320214e-4, -2.2565597e-3,
              1.6581205e-3, -6.4970576e-4
            ],
            "split_indices": [
              11, 4, 5, 5, 13, 13, 13, 9, 5, 2, 4, 5, 2, 11, 6, 0, 0, 0, 0, 0,
              0, 0, 0, 0, 0, 0, 0, 0, 0, 0, 0
            ],
            "split_type": [
              0, 0, 0, 0, 0, 0, 0, 0, 0, 0, 0, 0, 0, 0, 0, 0, 0, 0, 0, 0, 0, 0,
              0, 0, 0, 0, 0, 0, 0, 0, 0
            ],
            "sum_hessian": [
              8.629e3, 3.158e3, 5.471e3, 2.989e3, 1.69e2, 8.08e2, 4.663e3,
              3.31e2, 2.658e3, 7, 1.62e2, 7.61e2, 4.7e1, 4.223e3, 4.4e2, 9.2e1,
              2.39e2, 2.389e3, 2.69e2, 6, 1, 1.8e1, 1.44e2, 6.9e1, 6.92e2,
              1.3e1, 3.4e1, 3.409e3, 8.14e2, 3.67e2, 7.3e1
            ],
            "tree_param": {
              "num_deleted": "0",
              "num_feature": "17",
              "num_nodes": "31",
              "size_leaf_vector": "1"
            }
          },
          {
            "base_weights": [
              6.595124e-4, 4.1715518e-1, -1.212214e-3, 1.7846906e-1, 3.1347942,
              1.6083496e-2, -1.7658284e-2, 5.623424e-1, -2.0868546e-1, -0,
              2.2872841e-1, 5.316368e-2, 9.385994e-3, -6.5616705e-3,
              -3.2741755e-2, 4.1663148e-2, -6.2674633e-3, -1.6433366e-2, -0,
              1.21958805e-2, 2.4913144e-3, 2.5353418e-4, 3.0398655e-3,
              1.2917938e-3, -6.828212e-4, -1.8393312e-3, -0
            ],
            "categories": [],
            "categories_nodes": [],
            "categories_segments": [],
            "categories_sizes": [],
            "default_left": [
              0, 0, 0, 0, 0, 0, 0, 0, 0, 0, 0, 0, 0, 0, 0, 0, 0, 0, 0, 0, 0, 0,
              0, 0, 0, 0, 0
            ],
            "id": 18,
            "left_children": [
              1, 3, 5, 7, 9, 11, 13, 15, 17, -1, -1, 19, 21, 23, 25, -1, -1, -1,
              -1, -1, -1, -1, -1, -1, -1, -1, -1
            ],
            "loss_changes": [
              6.9696527, 2.3730415e1, 2.4569821, 5.941676, 1.2372545e1,
              1.0097836, 7.234477e-1, 4.184601, 3.6080152e-1, 0, 0,
              2.4204552e-1, 7.576734e-1, 5.87053e-1, 2.614057e-1, 0, 0, 0, 0, 0,
              0, 0, 0, 0, 0, 0, 0
            ],
            "parents": [
              2147483647, 0, 0, 1, 1, 2, 2, 3, 3, 4, 4, 5, 5, 6, 6, 7, 7, 8, 8,
              11, 11, 12, 12, 13, 13, 14, 14
            ],
            "right_children": [
              2, 4, 6, 8, 10, 12, 14, 16, 18, -1, -1, 20, 22, 24, 26, -1, -1,
              -1, -1, -1, -1, -1, -1, -1, -1, -1, -1
            ],
            "split_conditions": [
              3.5478016e-3, 8.3916086e-1, -2.2232103e-4, 2.801245e-2,
              3.370387e-1, 2.4415e-1, 7.959093e-2, 6.875e-1, 6.4166665e-1, -0,
              2.2872841e-1, 1.9441828e-2, 2.9139072e-1, 3.2785e-1, 9.375e-2,
              4.1663148e-2, -6.2674633e-3, -1.6433366e-2, -0, 1.21958805e-2,
              2.4913144e-3, 2.5353418e-4, 3.0398655e-3, 1.2917938e-3,
              -6.828212e-4, -1.8393312e-3, -0
            ],
            "split_indices": [
              0, 12, 10, 10, 1, 5, 10, 6, 3, 0, 0, 0, 13, 5, 13, 0, 0, 0, 0, 0,
              0, 0, 0, 0, 0, 0, 0
            ],
            "split_type": [
              0, 0, 0, 0, 0, 0, 0, 0, 0, 0, 0, 0, 0, 0, 0, 0, 0, 0, 0, 0, 0, 0,
              0, 0, 0, 0, 0
            ],
            "sum_hessian": [
              8.672e3, 3.9e1, 8.633e3, 3.7e1, 2, 4.193e3, 4.44e3, 1.9e1, 1.8e1,
              1, 1, 6.29e2, 3.564e3, 2.578e3, 1.862e3, 1.4e1, 5, 1e1, 8, 7,
              6.22e2, 3.298e3, 2.66e2, 4.5e2, 2.128e3, 1.668e3, 1.94e2
            ],
            "tree_param": {
              "num_deleted": "0",
              "num_feature": "17",
              "num_nodes": "27",
              "size_leaf_vector": "1"
            }
          },
          {
            "base_weights": [
              8.133487e-4, 4.1975802e-1, -8.336138e-4, 1.5503302e-1,
              2.2301021e-1, 1.5243876e-2, -1.4309287e-2, 8.9940345e-1,
              -8.936569e-2, 1.08722905e-2, 6.778009e-2, -1.82165e-2,
              2.1842888e-2, 6.365864e-2, -5.2929656e-3, 9.063548e-3,
              -1.2374852e-2, 1.4150812e-3, 1.3773213e-4, 6.139101e-3,
              2.6310117e-3, -4.8672795e-4, -1.720142e-3, 1.5012458e-3,
              -1.7202219e-4
            ],
            "categories": [],
            "categories_nodes": [],
            "categories_segments": [],
            "categories_sizes": [],
            "default_left": [
              0, 0, 0, 0, 0, 0, 0, 0, 0, 0, 0, 0, 0, 0, 0, 0, 0, 0, 0, 0, 0, 0,
              0, 0, 0
            ],
            "id": 19,
            "left_children": [
              1, 3, 5, 7, -1, 9, 11, 13, 15, 17, 19, 21, 23, -1, -1, -1, -1, -1,
              -1, -1, -1, -1, -1, -1, -1
            ],
            "loss_changes": [
              6.1671524, 3.4437153e1, 1.862984, 6.6707826, 0, 8.567847e-1,
              6.619145e-1, 4.100061, 1.1906766, 4.958628e-1, 1.4848006e-1,
              5.6122303e-1, 1.0565907e-1, 0, 0, 0, 0, 0, 0, 0, 0, 0, 0, 0, 0
            ],
            "parents": [
              2147483647, 0, 0, 1, 1, 2, 2, 3, 3, 5, 5, 6, 6, 7, 7, 8, 8, 9, 9,
              10, 10, 11, 11, 12, 12
            ],
            "right_children": [
              2, 4, 6, 8, -1, 10, 12, 14, 16, 18, 20, 22, 24, -1, -1, -1, -1,
              -1, -1, -1, -1, -1, -1, -1, -1
            ],
            "split_conditions": [
              3.5478016e-3, 3.0078125e-1, -2.48e-2, -9.17e-2, 2.2301021e-1,
              2.9139072e-1, 1.182266e-1, 6.875e-1, 4.461983e-1, -2.442e-1,
              1.3182187e-1, 2.0095e-1, 2.7505e-1, 6.365864e-2, -5.2929656e-3,
              9.063548e-3, -1.2374852e-2, 1.4150812e-3, 1.3773213e-4,
              6.139101e-3, 2.6310117e-3, -4.8672795e-4, -1.720142e-3,
              1.5012458e-3, -1.7202219e-4
            ],
            "split_indices": [
              0, 9, 11, 11, 0, 13, 13, 6, 1, 11, 0, 11, 11, 0, 0, 0, 0, 0, 0, 0,
              0, 0, 0, 0, 0
            ],
            "split_type": [
              0, 0, 0, 0, 0, 0, 0, 0, 0, 0, 0, 0, 0, 0, 0, 0, 0, 0, 0, 0, 0, 0,
              0, 0, 0
            ],
            "sum_hessian": [
              8.633e3, 3.4e1, 8.599e3, 3.3e1, 1, 3.904e3, 4.695e3, 8, 2.5e1,
              3.614e3, 2.9e2, 4.25e3, 4.45e2, 6, 2, 8, 1.7e1, 1.128e3, 2.486e3,
              5.4e1, 2.36e2, 2.81e3, 1.44e3, 3.51e2, 9.4e1
            ],
            "tree_param": {
              "num_deleted": "0",
              "num_feature": "17",
              "num_nodes": "25",
              "size_leaf_vector": "1"
            }
          },
          {
            "base_weights": [
              -6.862191e-4, 1.1974511e-2, -2.016959e-2, 5.761691e-1,
              1.0251221e-2, 1.7992107e-2, -2.3135941e-2, 9.1407046e-2,
              2.0447029e-1, 3.3706293e-2, -4.7565048e-4, 3.0913569e-2,
              -1.2602654e-2, -2.5915986e-2, 1.3614019e-2, 2.5600497e-2, -0,
              1.2500614e-2, 1.5362402e-3, -2.1374784e-4, 2.217186e-3,
              3.5946507e-3, 9.147689e-4, -1.4426727e-3, -0, -7.4495835e-4,
              -1.650324e-3, 9.605498e-6, 3.0954643e-3
            ],
            "categories": [],
            "categories_nodes": [],
            "categories_segments": [],
            "categories_sizes": [],
            "default_left": [
              0, 0, 0, 0, 0, 0, 0, 0, 0, 0, 0, 0, 0, 0, 0, 0, 0, 0, 0, 0, 0, 0,
              0, 0, 0, 0, 0, 0, 0
            ],
            "id": 20,
            "left_children": [
              1, 3, 5, 7, 9, 11, 13, -1, 15, 17, 19, 21, 23, 25, 27, -1, -1, -1,
              -1, -1, -1, -1, -1, -1, -1, -1, -1, -1, -1
            ],
            "loss_changes": [
              2.1355996, 4.7780814, 3.9002252e-1, 5.59024, 1.3269616,
              1.0244738e-1, 3.3190417e-1, 0, 1.0294197, 9.1541255e-1,
              5.863609e-1, 4.51148e-2, 2.3930086e-2, 2.0786834e-1, 1.0635891e-1,
              0, 0, 0, 0, 0, 0, 0, 0, 0, 0, 0, 0, 0, 0
            ],
            "parents": [
              2147483647, 0, 0, 1, 1, 2, 2, 3, 3, 4, 4, 5, 5, 6, 6, 8, 8, 9, 9,
              10, 10, 11, 11, 12, 12, 13, 13, 14, 14
            ],
            "right_children": [
              2, 4, 6, 8, 10, 12, 14, -1, 16, 18, 20, 22, 24, 26, 28, -1, -1,
              -1, -1, -1, -1, -1, -1, -1, -1, -1, -1, -1, -1
            ],
            "split_conditions": [
              2.801245e-2, 3.5478016e-3, 2.27e-1, 4.32e-1, 3.877e-1,
              1.0337928e-1, 3.775281e-1, 9.1407046e-2, 4.461983e-1,
              1.9441828e-2, 2.795699e-1, 9.315e-2, 1, 7.358826e-2, 9.2561984e-1,
              2.5600497e-2, -0, 1.2500614e-2, 1.5362402e-3, -2.1374784e-4,
              2.217186e-3, 3.5946507e-3, 9.147689e-4, -1.4426727e-3, -0,
              -7.4495835e-4, -1.650324e-3, 9.605498e-6, 3.0954643e-3
            ],
            "split_indices": [
              10, 0, 5, 5, 5, 10, 13, 0, 1, 0, 13, 5, 14, 10, 13, 0, 0, 0, 0, 0,
              0, 0, 0, 0, 0, 0, 0, 0, 0
            ],
            "split_type": [
              0, 0, 0, 0, 0, 0, 0, 0, 0, 0, 0, 0, 0, 0, 0, 0, 0, 0, 0, 0, 0, 0,
              0, 0, 0, 0, 0, 0, 0
            ],
            "sum_hessian": [
              8.639e3, 5.221e3, 3.418e3, 1.4e1, 5.207e3, 2.34e2, 3.184e3, 2,
              1.2e1, 1.648e3, 3.559e3, 1.76e2, 5.8e1, 2.973e3, 2.11e2, 5, 7,
              1.9e1, 1.629e3, 3.292e3, 2.67e2, 3.1e1, 1.45e2, 3.9e1, 1.9e1,
              1.193e3, 1.78e3, 1.74e2, 3.7e1
            ],
            "tree_param": {
              "num_deleted": "0",
              "num_feature": "17",
              "num_nodes": "29",
              "size_leaf_vector": "1"
            }
          },
          {
            "base_weights": [
              -0, 3.1779948e-1, -1.366818e-3, 6.409666e-2, 2.1743496e-1,
              2.564221e-2, -1.07290195e-2, 5.739064e-1, -6.59953e-2,
              1.9775242e-2, 8.030637e-2, 6.3072247e-3, -2.0045137e-2,
              -1.2113435e-2, 4.8483815e-2, -9.658002e-3, 5.1318747e-3,
              1.5373996e-3, -8.1151964e-5, 5.2704336e-3, 2.0311296e-3,
              5.5060367e-4, -1.689017e-3, -9.145922e-3, -9.56257e-4
            ],
            "categories": [],
            "categories_nodes": [],
            "categories_segments": [],
            "categories_sizes": [],
            "default_left": [
              0, 0, 0, 0, 0, 0, 0, 0, 0, 0, 0, 0, 0, 0, 0, 0, 0, 0, 0, 0, 0, 0,
              0, 0, 0
            ],
            "id": 21,
            "left_children": [
              1, 3, 5, 7, -1, 9, 11, 13, 15, 17, 19, 21, 23, -1, -1, -1, -1, -1,
              -1, -1, -1, -1, -1, -1, -1
            ],
            "loss_changes": [
              3.651816, 3.4330288e1, 2.1505067, 2.613106, 0, 6.4848757e-1,
              1.0149732, 3.1827655, 6.655228e-1, 4.7974718e-1, 1.2492168e-1,
              4.0901318e-1, 5.135826e-1, 0, 0, 0, 0, 0, 0, 0, 0, 0, 0, 0, 0
            ],
            "parents": [
              2147483647, 0, 0, 1, 1, 2, 2, 3, 3, 5, 5, 6, 6, 7, 7, 8, 8, 9, 9,
              10, 10, 11, 11, 12, 12
            ],
            "right_children": [
              2, 4, 6, 8, -1, 10, 12, 14, 16, 18, 20, 22, 24, -1, -1, -1, -1,
              -1, -1, -1, -1, -1, -1, -1, -1
            ],
            "split_conditions": [
              3.5478016e-3, 8.3916086e-1, -6.1360605e-2, -1.2475e-1,
              2.1743496e-1, 1.3019891e-1, 4.4855e-1, 3.8333333e-1, 6.5e-1,
              5.772e-1, -5.415e-2, 1.3317029e-1, 5.8714957e-3, -1.2113435e-2,
              4.8483815e-2, -9.658002e-3, 5.1318747e-3, 1.5373996e-3,
              -8.1151964e-5, 5.2704336e-3, 2.0311296e-3, 5.5060367e-4,
              -1.689017e-3, -9.145922e-3, -9.56257e-4
            ],
            "split_indices": [
              0, 12, 10, 11, 0, 13, 5, 3, 3, 5, 11, 10, 0, 0, 0, 0, 0, 0, 0, 0,
              0, 0, 0, 0, 0
            ],
            "split_type": [
              0, 0, 0, 0, 0, 0, 0, 0, 0, 0, 0, 0, 0, 0, 0, 0, 0, 0, 0, 0, 0, 0,
              0, 0, 0
            ],
            "sum_hessian": [
              8.567e3, 3.5e1, 8.532e3, 3.4e1, 1, 2.182e3, 6.35e3, 7, 2.7e1,
              1.98e3, 2.02e2, 2.226e3, 4.124e3, 2, 5, 1.7e1, 1e1, 1.324e3,
              6.56e2, 1.15e2, 8.7e1, 2.004e3, 2.22e2, 1.9e1, 4.105e3
            ],
            "tree_param": {
              "num_deleted": "0",
              "num_feature": "17",
              "num_nodes": "25",
              "size_leaf_vector": "1"
            }
          },
          {
            "base_weights": [
              -4.4457734e-4, 3.189856e-1, -1.954932e-3, 9.106513e-2,
              2.1199909e-1, 2.4010517e-2, -1.0860886e-2, 2.7589127e-1,
              -2.471306e-1, 1.901468e-2, 7.003398e-2, 3.847171e-3, -2.021982e-2,
              2.685141e-2, -1.5927077e-3, -1.6209347e-2, -0, 1.4253382e-3,
              -1.528456e-4, 4.2893398e-3, 1.9537795e-3, 4.1356008e-4,
              -1.6989149e-3, -1.7484048e-3, -3.588773e-4
            ],
            "categories": [],
            "categories_nodes": [],
            "categories_segments": [],
            "categories_sizes": [],
            "default_left": [
              0, 0, 0, 0, 0, 0, 0, 0, 0, 0, 0, 0, 0, 0, 0, 0, 0, 0, 0, 0, 0, 0,
              0, 0, 0
            ],
            "id": 22,
            "left_children": [
              1, 3, 5, 7, -1, 9, 11, 13, 15, 17, 19, 21, 23, -1, -1, -1, -1, -1,
              -1, -1, -1, -1, -1, -1, -1
            ],
            "loss_changes": [
              3.9994047, 3.2301697e1, 1.977555, 2.457843, 0, 4.5469224e-1,
              8.89648e-1, 2.359149, 1.5191871e-1, 4.2658514e-1, 3.3216e-2,
              4.0075982e-1, 7.353854e-1, 0, 0, 0, 0, 0, 0, 0, 0, 0, 0, 0, 0
            ],
            "parents": [
              2147483647, 0, 0, 1, 1, 2, 2, 3, 3, 5, 5, 6, 6, 7, 7, 8, 8, 9, 9,
              10, 10, 11, 11, 12, 12
            ],
            "right_children": [
              2, 4, 6, 8, -1, 10, 12, 14, 16, 18, 20, 22, 24, -1, -1, -1, -1,
              -1, -1, -1, -1, -1, -1, -1, -1
            ],
            "split_conditions": [
              3.5478016e-3, 3.0078125e-1, -6.1360605e-2, 6e-1, 2.1199909e-1,
              1.6666667e-1, 4.754e-1, 2.4232993e-2, 5.486883e-1, 6.0465e-1,
              4.9046245e-1, 1.3072477e-1, 5.708841e-1, 2.685141e-2,
              -1.5927077e-3, -1.6209347e-2, -0, 1.4253382e-3, -1.528456e-4,
              4.2893398e-3, 1.9537795e-3, 4.1356008e-4, -1.6989149e-3,
              -1.7484048e-3, -3.588773e-4
            ],
            "split_indices": [
              0, 9, 10, 8, 0, 4, 5, 10, 1, 5, 0, 10, 7, 0, 0, 0, 0, 0, 0, 0, 0,
              0, 0, 0, 0
            ],
            "split_type": [
              0, 0, 0, 0, 0, 0, 0, 0, 0, 0, 0, 0, 0, 0, 0, 0, 0, 0, 0, 0, 0, 0,
              0, 0, 0
            ],
            "sum_hessian": [
              8.616e3, 3.8e1, 8.578e3, 3.7e1, 1, 2.176e3, 6.402e3, 2.5e1, 1.2e1,
              1.974e3, 2.02e2, 2.469e3, 3.933e3, 1.4e1, 1.1e1, 8, 4, 1.396e3,
              5.78e2, 1.22e2, 8e1, 2.223e3, 2.46e2, 1.827e3, 2.106e3
            ],
            "tree_param": {
              "num_deleted": "0",
              "num_feature": "17",
              "num_nodes": "25",
              "size_leaf_vector": "1"
            }
          },
          {
            "base_weights": [
              -2.0577862e-4, 3.1648457e-1, -1.4014207e-3, 3.4768578e-2,
              2.0669912e-1, 5.2583676e-2, -4.5579537e-3, 6.3252693e-1,
              -2.2772439e-1, 1.9330263e-1, 4.0314645e-2, -6.801619e-3,
              6.1472706e-2, 6.672666e-2, 3.4795476e-3, -0, -1.3142146e-2,
              9.996727e-3, -0, 2.2070224e-3, -0, -5.0441113e-6, -1.2688785e-3,
              3.657845e-3, 9.133515e-4
            ],
            "categories": [],
            "categories_nodes": [],
            "categories_segments": [],
            "categories_sizes": [],
            "default_left": [
              0, 0, 0, 0, 0, 0, 0, 0, 0, 0, 0, 0, 0, 0, 0, 0, 0, 0, 0, 0, 0, 0,
              0, 0, 0
            ],
            "id": 23,
            "left_children": [
              1, 3, 5, 7, -1, 9, 11, 13, 15, 17, 19, 21, 23, -1, -1, -1, -1, -1,
              -1, -1, -1, -1, -1, -1, -1
            ],
            "loss_changes": [
              3.1216176, 3.1110847e1, 1.4466579, 5.0536637, 0, 6.833935e-1,
              1.1822888, 3.1569123, 1.5452886e-1, 4.8695207e-2, 7.2358906e-2,
              9.7084033e-1, 8.471072e-2, 0, 0, 0, 0, 0, 0, 0, 0, 0, 0, 0, 0
            ],
            "parents": [
              2147483647, 0, 0, 1, 1, 2, 2, 3, 3, 5, 5, 6, 6, 7, 7, 8, 8, 9, 9,
              10, 10, 11, 11, 12, 12
            ],
            "right_children": [
              2, 4, 6, 8, -1, 10, 12, 14, 16, 18, 20, 22, 24, -1, -1, -1, -1,
              -1, -1, -1, -1, -1, -1, -1, -1
            ],
            "split_conditions": [
              3.5478016e-3, 8.3916086e-1, 1.586e-1, -7.525e-2, 2.0669912e-1,
              5.801729e-2, 7.3333335e-1, 2.7083334e-1, 4.21743e-1, 3.312159e-1,
              6.0578823e-1, 6.887e-1, 7.3245e-1, 6.672666e-2, 3.4795476e-3, -0,
              -1.3142146e-2, 9.996727e-3, -0, 2.2070224e-3, -0, -5.0441113e-6,
              -1.2688785e-3, 3.657845e-3, 9.133515e-4
            ],
            "split_indices": [
              0, 12, 5, 11, 0, 0, 4, 6, 1, 7, 0, 5, 5, 0, 0, 0, 0, 0, 0, 0, 0,
              0, 0, 0, 0
            ],
            "split_type": [
              0, 0, 0, 0, 0, 0, 0, 0, 0, 0, 0, 0, 0, 0, 0, 0, 0, 0, 0, 0, 0, 0,
              0, 0, 0
            ],
            "sum_hessian": [
              8.658e3, 3e1, 8.628e3, 2.9e1, 1, 4.67e2, 8.161e3, 9, 2e1, 3.3e1,
              4.34e2, 7.901e3, 2.6e2, 3, 6, 3, 1.7e1, 3.2e1, 1, 3.99e2, 3.5e1,
              5.827e3, 2.074e3, 1.95e2, 6.5e1
            ],
            "tree_param": {
              "num_deleted": "0",
              "num_feature": "17",
              "num_nodes": "25",
              "size_leaf_vector": "1"
            }
          },
          {
            "base_weights": [
              9.964888e-4, 4.2588872e-1, -6.7625614e-4, 1.8661292e-1,
              2.0153165e-1, 2.3362972e-2, -8.981359e-3, 8.2274914e-1, -0,
              1.9765703e-2, 8.669161e-2, -1.2621753e-3, -2.5241075e-2,
              8.2500376e-2, -0, 1.3138509e-2, -7.9579335e-3, 2.3349936e-3,
              7.759727e-4, 4.598017e-3, -0, -2.201048e-4, 2.1210078e-3,
              -9.245517e-3, -1.1860057e-3
            ],
            "categories": [],
            "categories_nodes": [],
            "categories_segments": [],
            "categories_sizes": [],
            "default_left": [
              0, 0, 0, 0, 0, 0, 0, 0, 0, 0, 0, 0, 0, 0, 0, 0, 0, 0, 0, 0, 0, 0,
              0, 0, 0
            ],
            "id": 24,
            "left_children": [
              1, 3, 5, 7, -1, 9, 11, 13, 15, 17, 19, 21, 23, -1, -1, -1, -1, -1,
              -1, -1, -1, -1, -1, -1, -1
            ],
            "loss_changes": [
              6.3437057, 2.732769e1, 1.708397, 4.2313004, 0, 4.441898e-1,
              7.902426e-1, 5.47477, 1.1464481, 2.062822e-1, 4.434246e-2,
              5.796027e-1, 3.867147e-1, 0, 0, 0, 0, 0, 0, 0, 0, 0, 0, 0, 0
            ],
            "parents": [
              2147483647, 0, 0, 1, 1, 2, 2, 3, 3, 5, 5, 6, 6, 7, 7, 8, 8, 9, 9,
              10, 10, 11, 11, 12, 12
            ],
            "right_children": [
              2, 4, 6, 8, -1, 10, 12, 14, 16, 18, 20, 22, 24, -1, -1, -1, -1,
              -1, -1, -1, -1, -1, -1, -1, -1
            ],
            "split_conditions": [
              3.5478016e-3, 3.0078125e-1, -6.1360605e-2, -9.17e-2, 2.0153165e-1,
              6.333333e-1, 1.3495e-1, 4.682081e-1, 4.461983e-1, -1.6629612e-1,
              7.884739e-1, 3.775281e-1, 1.6462652e-2, 8.2500376e-2, -0,
              1.3138509e-2, -7.9579335e-3, 2.3349936e-3, 7.759727e-4,
              4.598017e-3, -0, -2.201048e-4, 2.1210078e-3, -9.245517e-3,
              -1.1860057e-3
            ],
            "split_indices": [
              0, 9, 10, 11, 0, 4, 11, 1, 1, 10, 0, 13, 0, 0, 0, 0, 0, 0, 0, 0,
              0, 0, 0, 0, 0
            ],
            "split_type": [
              0, 0, 0, 0, 0, 0, 0, 0, 0, 0, 0, 0, 0, 0, 0, 0, 0, 0, 0, 0, 0, 0,
              0, 0, 0
            ],
            "sum_hessian": [
              8.625e3, 3.4e1, 8.591e3, 3.3e1, 1, 2.19e3, 6.401e3, 7, 2.6e1,
              2.081e3, 1.09e2, 4.362e3, 2.039e3, 3, 4, 9, 1.7e1, 2.66e2,
              1.815e3, 1.02e2, 7, 4.081e3, 2.81e2, 1.5e1, 2.024e3
            ],
            "tree_param": {
              "num_deleted": "0",
              "num_feature": "17",
              "num_nodes": "25",
              "size_leaf_vector": "1"
            }
          },
          {
            "base_weights": [
              7.073465e-5, 9.212922e-3, -1.9048788e-2, 2.7304062e-1,
              8.130559e-3, -1.4080805e-1, -1.7663077e-2, 6.73918e-1,
              -7.551703e-2, 4.003311e-3, 4.564683e-2, -0, -2.2757357e-1,
              -2.08965e-2, 1.298701e-2, 5.963471e-2, -0, 9.61573e-3,
              -1.4798609e-2, 7.8395865e-4, -4.1872408e-4, 4.502054e-3,
              1.6382252e-3, -3.2689702e-3, 2.0020104e-3, -0, -1.2381337e-2,
              -7.1080524e-4, -1.7799449e-3, 1.1625517e-3, -8.65614e-4
            ],
            "categories": [],
            "categories_nodes": [],
            "categories_segments": [],
            "categories_sizes": [],
            "default_left": [
              0, 0, 0, 0, 0, 0, 0, 0, 0, 0, 0, 0, 0, 0, 0, 0, 0, 0, 0, 0, 0, 0,
              0, 0, 0, 0, 0, 0, 0, 0, 0
            ],
            "id": 25,
            "left_children": [
              1, 3, 5, 7, 9, 11, 13, 15, 17, 19, 21, 23, 25, 27, 29, -1, -1, -1,
              -1, -1, -1, -1, -1, -1, -1, -1, -1, -1, -1, -1, -1
            ],
            "loss_changes": [
              1.5030328, 1.5288469, 3.8614666e-1, 3.424128, 8.7816775e-1,
              2.4151951e-1, 2.764668e-1, 3.5392957, 8.1728685e-1, 7.6512235e-1,
              2.5934327e-1, 4.6486285e-2, 8.162016e-2, 2.2013092e-1,
              8.049807e-2, 0, 0, 0, 0, 0, 0, 0, 0, 0, 0, 0, 0, 0, 0, 0, 0
            ],
            "parents": [
              2147483647, 0, 0, 1, 1, 2, 2, 3, 3, 4, 4, 5, 5, 6, 6, 7, 7, 8, 8,
              9, 9, 10, 10, 11, 11, 12, 12, 13, 13, 14, 14
            ],
            "right_children": [
              2, 4, 6, 8, 10, 12, 14, 16, 18, 20, 22, 24, 26, 28, 30, -1, -1,
              -1, -1, -1, -1, -1, -1, -1, -1, -1, -1, -1, -1, -1, -1
            ],
            "split_conditions": [
              4.6687417e-2, 3.5478016e-3, 5.8714957e-3, 2.7083334e-1, 9.375e-2,
              3.9145055e-1, 2.3027718e-1, 5.2028996e-1, -8.4926635e-2,
              5.1665e-1, 3.0325e-1, 3.6940438e-1, 3.335e-1, 6.887e-1,
              1.4495331e-1, 5.963471e-2, -0, 9.61573e-3, -1.4798609e-2,
              7.8395865e-4, -4.1872408e-4, 4.502054e-3, 1.6382252e-3,
              -3.2689702e-3, 2.0020104e-3, -0, -1.2381337e-2, -7.1080524e-4,
              -1.7799449e-3, 1.1625517e-3, -8.65614e-4
            ],
            "split_indices": [
              10, 0, 0, 6, 13, 7, 13, 7, 10, 5, 5, 7, 5, 5, 10, 0, 0, 0, 0, 0,
              0, 0, 0, 0, 0, 0, 0, 0, 0, 0, 0
            ],
            "split_type": [
              0, 0, 0, 0, 0, 0, 0, 0, 0, 0, 0, 0, 0, 0, 0, 0, 0, 0, 0, 0, 0, 0,
              0, 0, 0, 0, 0, 0, 0, 0, 0
            ],
            "sum_hessian": [
              8.625e3, 5.853e3, 2.772e3, 2.1e1, 5.832e3, 2.6e1, 2.746e3, 1e1,
              1.1e1, 5.267e3, 5.65e2, 1.2e1, 1.4e1, 2.499e3, 2.47e2, 5, 5, 4, 7,
              2.731e3, 2.536e3, 1.17e2, 4.48e2, 8, 4, 1, 1.3e1, 1.743e3, 7.56e2,
              1.97e2, 5e1
            ],
            "tree_param": {
              "num_deleted": "0",
              "num_feature": "17",
              "num_nodes": "31",
              "size_leaf_vector": "1"
            }
          },
          {
            "base_weights": [
              5.869008e-4, 2.6401365e-1, -4.592042e-4, 3.270736e-2,
              1.9649334e-1, 1.3303894e-2, -1.0624909e-2, -1.2333385e-1,
              1.9691753e-1, 9.055937e-3, 5.4215122e-2, -5.5532972e-3,
              -3.1208564e-2, -0, -1.9616181e-2, 6.162087e-2, -0, 1.2130665e-3,
              8.619113e-5, 3.4669016e-3, 6.009748e-4, -5.792893e-4, 6.601013e-4,
              -1.745662e-2, -1.4830049e-3
            ],
            "categories": [],
            "categories_nodes": [],
            "categories_segments": [],
            "categories_sizes": [],
            "default_left": [
              0, 0, 0, 0, 0, 0, 0, 0, 0, 0, 0, 0, 0, 0, 0, 0, 0, 0, 0, 0, 0, 0,
              0, 0, 0
            ],
            "id": 26,
            "left_children": [
              1, 3, 5, 7, -1, 9, 11, 13, 15, 17, 19, 21, 23, -1, -1, -1, -1, -1,
              -1, -1, -1, -1, -1, -1, -1
            ],
            "loss_changes": [
              2.508156, 2.8415833e1, 1.2003626, 9.579028e-1, 0, 5.983805e-1,
              4.99336e-1, 5.109981e-1, 3.8198035, 3.5476342e-1, 1.6906756e-1,
              4.5202303e-1, 2.7334356e-1, 0, 0, 0, 0, 0, 0, 0, 0, 0, 0, 0, 0
            ],
            "parents": [
              2147483647, 0, 0, 1, 1, 2, 2, 3, 3, 5, 5, 6, 6, 7, 7, 8, 8, 9, 9,
              10, 10, 11, 11, 12, 12
            ],
            "right_children": [
              2, 4, 6, 8, -1, 10, 12, 14, 16, 18, 20, 22, 24, -1, -1, -1, -1,
              -1, -1, -1, -1, -1, -1, -1, -1
            ],
            "split_conditions": [
              3.5478016e-3, 3.0078125e-1, -4e-2, 4.611111e-1, 1.9649334e-1,
              1.6783217e-1, 8.0875e-1, 1.4722222e-1, 5.5277777e-1, -2.498e-1,
              5.254029e-1, 5.452507e-1, 5.8714957e-3, -0, -1.9616181e-2,
              6.162087e-2, -0, 1.2130665e-3, 8.619113e-5, 3.4669016e-3,
              6.009748e-4, -5.792893e-4, 6.601013e-4, -1.745662e-2,
              -1.4830049e-3
            ],
            "split_indices": [
              0, 9, 11, 3, 0, 13, 5, 3, 3, 11, 0, 7, 0, 0, 0, 0, 0, 0, 0, 0, 0,
              0, 0, 0, 0
            ],
            "split_type": [
              0, 0, 0, 0, 0, 0, 0, 0, 0, 0, 0, 0, 0, 0, 0, 0, 0, 0, 0, 0, 0, 0,
              0, 0, 0
            ],
            "sum_hessian": [
              8.622e3, 3.5e1, 8.587e3, 3.4e1, 1, 3.627e3, 4.96e3, 1.6e1, 1.8e1,
              3.298e3, 3.29e2, 4e3, 9.6e2, 1.2e1, 4, 2, 1.6e1, 1.05e3, 2.248e3,
              2.33e2, 9.6e1, 3.047e3, 9.53e2, 2, 9.58e2
            ],
            "tree_param": {
              "num_deleted": "0",
              "num_feature": "17",
              "num_nodes": "25",
              "size_leaf_vector": "1"
            }
          },
          {
            "base_weights": [
              5.1399943e-4, 2.779459e-1, -4.6249654e-4, 2.3581577e-2,
              1.9158101e-1, 2.0605441e-2, -7.64947e-3, 4.074482e-1,
              -1.5480483e-1, 2.4338737e-2, -2.0407876e-2, -1.1190162e-2,
              2.3981152e-2, 6.456528e-4, 6.442855e-2, 5.5899634e-3,
              -1.3817804e-2, 1.0654869e-3, 3.8841441e-3, -4.203866e-3,
              -6.1648147e-4, -1.303285e-4, -1.1388118e-3, 3.5355415e-3,
              7.325744e-4
            ],
            "categories": [],
            "categories_nodes": [],
            "categories_segments": [],
            "categories_sizes": [],
            "default_left": [
              0, 0, 0, 0, 0, 0, 0, 0, 0, 0, 0, 0, 0, 0, 0, 0, 0, 0, 0, 0, 0, 0,
              0, 0, 0
            ],
            "id": 27,
            "left_children": [
              1, 3, 5, 7, -1, 9, 11, 13, 15, 17, 19, 21, 23, -1, -1, -1, -1, -1,
              -1, -1, -1, -1, -1, -1, -1
            ],
            "loss_changes": [
              2.4716861, 2.690774e1, 1.2928177, 2.312171, 0, 3.3395576e-1,
              7.1242833e-1, 3.1565914, 7.93702e-1, 2.7136052e-1, 3.819724e-2,
              5.6256825e-1, 2.318173e-1, 0, 0, 0, 0, 0, 0, 0, 0, 0, 0, 0, 0
            ],
            "parents": [
              2147483647, 0, 0, 1, 1, 2, 2, 3, 3, 5, 5, 6, 6, 7, 7, 8, 8, 9, 9,
              10, 10, 11, 11, 12, 12
            ],
            "right_children": [
              2, 4, 6, 8, -1, 10, 12, 14, 16, 18, 20, 22, 24, -1, -1, -1, -1,
              -1, -1, -1, -1, -1, -1, -1, -1
            ],
            "split_conditions": [
              3.5478016e-3, 3.0078125e-1, -6.1360605e-2, 2.7083334e-1,
              1.9158101e-1, 8.1795e-1, 2e-1, 2.0833333e-1, 4.1196087e-1,
              5.6666666e-1, 6.433749e-1, 5.9105e-1, 3.067e-1, 6.456528e-4,
              6.442855e-2, 5.5899634e-3, -1.3817804e-2, 1.0654869e-3,
              3.8841441e-3, -4.203866e-3, -6.1648147e-4, -1.303285e-4,
              -1.1388118e-3, 3.5355415e-3, 7.325744e-4
            ],
            "split_indices": [
              0, 9, 10, 6, 0, 5, 4, 6, 1, 4, 7, 5, 5, 0, 0, 0, 0, 0, 0, 0, 0, 0,
              0, 0, 0
            ],
            "split_type": [
              0, 0, 0, 0, 0, 0, 0, 0, 0, 0, 0, 0, 0, 0, 0, 0, 0, 0, 0, 0, 0, 0,
              0, 0, 0
            ],
            "sum_hessian": [
              8.61e3, 3.1e1, 8.579e3, 3e1, 1, 2.164e3, 6.415e3, 1e1, 2e1,
              1.995e3, 1.69e2, 5.784e3, 6.31e2, 8, 2, 5, 1.5e1, 1.898e3, 9.7e1,
              1.1e1, 1.58e2, 3.348e3, 2.436e3, 9.5e1, 5.36e2
            ],
            "tree_param": {
              "num_deleted": "0",
              "num_feature": "17",
              "num_nodes": "25",
              "size_leaf_vector": "1"
            }
          },
          {
            "base_weights": [
              1.1188296e-3, 3.5442936e-1, -1.3912121e-4, 1.0871224e-1,
              1.867915e-1, 3.584441e-2, -4.1027474e-3, 4.7580245e-1,
              -9.19775e-2, 8.998284e-2, 3.0311517e-2, 2.9241921e-2,
              -7.871864e-3, 5.7147622e-2, -0, 1.4003195e-2, -1.5357134e-2,
              7.868581e-3, -0, 1.6458534e-3, -1.4429521e-3, 1.244761e-3,
              3.6510755e-3, -5.0129526e-4, 2.5798648e-3
            ],
            "categories": [],
            "categories_nodes": [],
            "categories_segments": [],
            "categories_sizes": [],
            "default_left": [
              0, 0, 0, 0, 0, 0, 0, 0, 0, 0, 0, 0, 0, 0, 0, 0, 0, 0, 0, 0, 0, 0,
              0, 0, 0
            ],
            "id": 28,
            "left_children": [
              1, 3, 5, 7, -1, 9, 11, 13, 15, 17, 19, 21, 23, -1, -1, -1, -1, -1,
              -1, -1, -1, -1, -1, -1, -1
            ],
            "loss_changes": [
              4.009219, 2.4259373e1, 1.2095698, 2.5194838, 0, 1.8874085e-1,
              9.638164e-1, 3.8150454, 1.7005659, 4.071805e-1, 1.2199974e-1,
              9.651345e-2, 8.737345e-1, 0, 0, 0, 0, 0, 0, 0, 0, 0, 0, 0, 0
            ],
            "parents": [
              2147483647, 0, 0, 1, 1, 2, 2, 3, 3, 5, 5, 6, 6, 7, 7, 8, 8, 9, 9,
              10, 10, 11, 11, 12, 12
            ],
            "right_children": [
              2, 4, 6, 8, -1, 10, 12, 14, 16, 18, 20, 22, 24, -1, -1, -1, -1,
              -1, -1, -1, -1, -1, -1, -1, -1
            ],
            "split_conditions": [
              3.5478016e-3, 3.0078125e-1, 2.17e-1, 2.7083334e-1, 1.867915e-1,
              5.801729e-2, -1.1316141e-1, 4.682081e-1, 4.1196087e-1, 1.6495e-1,
              1.3317029e-1, 2.0824295e-1, 7.3333335e-1, 5.7147622e-2, -0,
              1.4003195e-2, -1.5357134e-2, 7.868581e-3, -0, 1.6458534e-3,
              -1.4429521e-3, 1.244761e-3, 3.6510755e-3, -5.0129526e-4,
              2.5798648e-3
            ],
            "split_indices": [
              0, 9, 5, 6, 0, 0, 10, 1, 1, 5, 10, 13, 4, 0, 0, 0, 0, 0, 0, 0, 0,
              0, 0, 0, 0
            ],
            "split_type": [
              0, 0, 0, 0, 0, 0, 0, 0, 0, 0, 0, 0, 0, 0, 0, 0, 0, 0, 0, 0, 0, 0,
              0, 0, 0
            ],
            "sum_hessian": [
              8.621e3, 3.1e1, 8.59e3, 3e1, 1, 8.39e2, 7.751e3, 1.1e1, 1.9e1,
              6.8e1, 7.71e2, 7.73e2, 6.978e3, 4, 7, 6, 1.3e1, 3.8e1, 3e1,
              7.47e2, 2.4e1, 7.15e2, 5.8e1, 6.743e3, 2.35e2
            ],
            "tree_param": {
              "num_deleted": "0",
              "num_feature": "17",
              "num_nodes": "25",
              "size_leaf_vector": "1"
            }
          }
        ]
      },
      "name": "gbtree"
    },
    "learner_model_param": {
      "base_score": "[1.6814219E-3]",
      "boost_from_average": "1",
      "num_class": "0",
      "num_feature": "17",
      "num_target": "1"
    },
    "objective": {
      "name": "reg:squarederror",
      "reg_loss_param": { "scale_pos_weight": "1" }
    }
  },
  "version": [3, 1, 2]
}
